digraph Tree {
node [shape=box, fontname="helvetica"] ;
edge [fontname="helvetica"] ;
0 [label="avg_training_score <= 90.5\ngini = 0.154\nsamples = 38365\nvalue = [35143, 3222]"] ;
1 [label="KPIs_met >80% <= 0.5\ngini = 0.14\nsamples = 37963\nvalue = [35090, 2873]"] ;
0 -> 1 [labeldistance=2.5, labelangle=45, headlabel="True"] ;
2 [label="awards_won? <= 0.5\ngini = 0.067\nsamples = 24697\nvalue = [23842, 855]"] ;
1 -> 2 ;
3 [label="previous_year_rating <= 4.5\ngini = 0.057\nsamples = 24422\nvalue = [23705, 717]"] ;
2 -> 3 ;
4 [label="avg_training_score <= 60.5\ngini = 0.038\nsamples = 21547\nvalue = [21131, 416]"] ;
3 -> 4 ;
5 [label="avg_training_score <= 56.5\ngini = 0.007\nsamples = 11445\nvalue = [11405, 40]"] ;
4 -> 5 ;
6 [label="avg_training_score <= 54.5\ngini = 0.001\nsamples = 8840\nvalue = [8837, 3]"] ;
5 -> 6 ;
7 [label="gini = 0.0\nsamples = 8135\nvalue = [8135, 0]"] ;
6 -> 7 ;
8 [label="gender_n <= 0.5\ngini = 0.008\nsamples = 705\nvalue = [702, 3]"] ;
6 -> 8 ;
9 [label="gini = 0.0\nsamples = 229\nvalue = [229, 0]"] ;
8 -> 9 ;
10 [label="age <= 45.5\ngini = 0.013\nsamples = 476\nvalue = [473, 3]"] ;
8 -> 10 ;
11 [label="length_of_service <= 8.5\ngini = 0.009\nsamples = 427\nvalue = [425, 2]"] ;
10 -> 11 ;
12 [label="length_of_service <= 2.5\ngini = 0.005\nsamples = 364\nvalue = [363, 1]"] ;
11 -> 12 ;
13 [label="avg_training_score <= 55.5\ngini = 0.018\nsamples = 109\nvalue = [108, 1]"] ;
12 -> 13 ;
14 [label="age <= 27.5\ngini = 0.053\nsamples = 37\nvalue = [36, 1]"] ;
13 -> 14 ;
15 [label="gini = 0.0\nsamples = 22\nvalue = [22, 0]"] ;
14 -> 15 ;
16 [label="age <= 28.5\ngini = 0.124\nsamples = 15\nvalue = [14, 1]"] ;
14 -> 16 ;
17 [label="previous_year_rating <= 2.5\ngini = 0.219\nsamples = 8\nvalue = [7, 1]"] ;
16 -> 17 ;
18 [label="gini = 0.0\nsamples = 3\nvalue = [3, 0]"] ;
17 -> 18 ;
19 [label="length_of_service <= 1.5\ngini = 0.32\nsamples = 5\nvalue = [4, 1]"] ;
17 -> 19 ;
20 [label="gini = 0.0\nsamples = 2\nvalue = [2, 0]"] ;
19 -> 20 ;
21 [label="previous_year_rating <= 3.5\ngini = 0.444\nsamples = 3\nvalue = [2, 1]"] ;
19 -> 21 ;
22 [label="gini = 0.0\nsamples = 1\nvalue = [0, 1]"] ;
21 -> 22 ;
23 [label="gini = 0.0\nsamples = 2\nvalue = [2, 0]"] ;
21 -> 23 ;
24 [label="gini = 0.0\nsamples = 7\nvalue = [7, 0]"] ;
16 -> 24 ;
25 [label="gini = 0.0\nsamples = 72\nvalue = [72, 0]"] ;
13 -> 25 ;
26 [label="gini = 0.0\nsamples = 255\nvalue = [255, 0]"] ;
12 -> 26 ;
27 [label="age <= 33.5\ngini = 0.031\nsamples = 63\nvalue = [62, 1]"] ;
11 -> 27 ;
28 [label="previous_year_rating <= 3.5\ngini = 0.198\nsamples = 9\nvalue = [8, 1]"] ;
27 -> 28 ;
29 [label="gini = 0.0\nsamples = 6\nvalue = [6, 0]"] ;
28 -> 29 ;
30 [label="avg_training_score <= 55.5\ngini = 0.444\nsamples = 3\nvalue = [2, 1]"] ;
28 -> 30 ;
31 [label="gini = 0.0\nsamples = 2\nvalue = [2, 0]"] ;
30 -> 31 ;
32 [label="gini = 0.0\nsamples = 1\nvalue = [0, 1]"] ;
30 -> 32 ;
33 [label="gini = 0.0\nsamples = 54\nvalue = [54, 0]"] ;
27 -> 33 ;
34 [label="age <= 46.5\ngini = 0.04\nsamples = 49\nvalue = [48, 1]"] ;
10 -> 34 ;
35 [label="previous_year_rating <= 2.5\ngini = 0.278\nsamples = 6\nvalue = [5, 1]"] ;
34 -> 35 ;
36 [label="length_of_service <= 9.5\ngini = 0.5\nsamples = 2\nvalue = [1, 1]"] ;
35 -> 36 ;
37 [label="gini = 0.0\nsamples = 1\nvalue = [0, 1]"] ;
36 -> 37 ;
38 [label="gini = 0.0\nsamples = 1\nvalue = [1, 0]"] ;
36 -> 38 ;
39 [label="gini = 0.0\nsamples = 4\nvalue = [4, 0]"] ;
35 -> 39 ;
40 [label="gini = 0.0\nsamples = 43\nvalue = [43, 0]"] ;
34 -> 40 ;
41 [label="age <= 32.5\ngini = 0.028\nsamples = 2605\nvalue = [2568, 37]"] ;
5 -> 41 ;
42 [label="age <= 24.5\ngini = 0.042\nsamples = 1109\nvalue = [1085, 24]"] ;
41 -> 42 ;
43 [label="gini = 0.0\nsamples = 69\nvalue = [69, 0]"] ;
42 -> 43 ;
44 [label="gender_n <= 0.5\ngini = 0.045\nsamples = 1040\nvalue = [1016, 24]"] ;
42 -> 44 ;
45 [label="age <= 27.5\ngini = 0.028\nsamples = 349\nvalue = [344, 5]"] ;
44 -> 45 ;
46 [label="gini = 0.0\nsamples = 85\nvalue = [85, 0]"] ;
45 -> 46 ;
47 [label="previous_year_rating <= 3.5\ngini = 0.037\nsamples = 264\nvalue = [259, 5]"] ;
45 -> 47 ;
48 [label="previous_year_rating <= 2.5\ngini = 0.049\nsamples = 200\nvalue = [195, 5]"] ;
47 -> 48 ;
49 [label="gini = 0.0\nsamples = 49\nvalue = [49, 0]"] ;
48 -> 49 ;
50 [label="length_of_service <= 1.5\ngini = 0.064\nsamples = 151\nvalue = [146, 5]"] ;
48 -> 50 ;
51 [label="gini = 0.0\nsamples = 29\nvalue = [29, 0]"] ;
50 -> 51 ;
52 [label="age <= 28.5\ngini = 0.079\nsamples = 122\nvalue = [117, 5]"] ;
50 -> 52 ;
53 [label="avg_training_score <= 58.5\ngini = 0.18\nsamples = 20\nvalue = [18, 2]"] ;
52 -> 53 ;
54 [label="gini = 0.0\nsamples = 8\nvalue = [8, 0]"] ;
53 -> 54 ;
55 [label="length_of_service <= 4.5\ngini = 0.278\nsamples = 12\nvalue = [10, 2]"] ;
53 -> 55 ;
56 [label="no_of_trainings <= 2.0\ngini = 0.375\nsamples = 8\nvalue = [6, 2]"] ;
55 -> 56 ;
57 [label="length_of_service <= 3.0\ngini = 0.408\nsamples = 7\nvalue = [5, 2]"] ;
56 -> 57 ;
58 [label="gini = 0.444\nsamples = 3\nvalue = [2, 1]"] ;
57 -> 58 ;
59 [label="avg_training_score <= 59.5\ngini = 0.375\nsamples = 4\nvalue = [3, 1]"] ;
57 -> 59 ;
60 [label="gini = 0.0\nsamples = 1\nvalue = [1, 0]"] ;
59 -> 60 ;
61 [label="gini = 0.444\nsamples = 3\nvalue = [2, 1]"] ;
59 -> 61 ;
62 [label="gini = 0.0\nsamples = 1\nvalue = [1, 0]"] ;
56 -> 62 ;
63 [label="gini = 0.0\nsamples = 4\nvalue = [4, 0]"] ;
55 -> 63 ;
64 [label="avg_training_score <= 59.5\ngini = 0.057\nsamples = 102\nvalue = [99, 3]"] ;
52 -> 64 ;
65 [label="avg_training_score <= 57.5\ngini = 0.08\nsamples = 72\nvalue = [69, 3]"] ;
64 -> 65 ;
66 [label="gini = 0.0\nsamples = 16\nvalue = [16, 0]"] ;
65 -> 66 ;
67 [label="length_of_service <= 2.5\ngini = 0.101\nsamples = 56\nvalue = [53, 3]"] ;
65 -> 67 ;
68 [label="age <= 29.5\ngini = 0.219\nsamples = 8\nvalue = [7, 1]"] ;
67 -> 68 ;
69 [label="gini = 0.0\nsamples = 2\nvalue = [2, 0]"] ;
68 -> 69 ;
70 [label="avg_training_score <= 58.5\ngini = 0.278\nsamples = 6\nvalue = [5, 1]"] ;
68 -> 70 ;
71 [label="gini = 0.0\nsamples = 1\nvalue = [1, 0]"] ;
70 -> 71 ;
72 [label="gini = 0.32\nsamples = 5\nvalue = [4, 1]"] ;
70 -> 72 ;
73 [label="age <= 30.5\ngini = 0.08\nsamples = 48\nvalue = [46, 2]"] ;
67 -> 73 ;
74 [label="gini = 0.0\nsamples = 19\nvalue = [19, 0]"] ;
73 -> 74 ;
75 [label="length_of_service <= 6.5\ngini = 0.128\nsamples = 29\nvalue = [27, 2]"] ;
73 -> 75 ;
76 [label="length_of_service <= 4.5\ngini = 0.188\nsamples = 19\nvalue = [17, 2]"] ;
75 -> 76 ;
77 [label="gini = 0.0\nsamples = 7\nvalue = [7, 0]"] ;
76 -> 77 ;
78 [label="age <= 31.5\ngini = 0.278\nsamples = 12\nvalue = [10, 2]"] ;
76 -> 78 ;
79 [label="avg_training_score <= 58.5\ngini = 0.219\nsamples = 8\nvalue = [7, 1]"] ;
78 -> 79 ;
80 [label="length_of_service <= 5.5\ngini = 0.278\nsamples = 6\nvalue = [5, 1]"] ;
79 -> 80 ;
81 [label="gini = 0.375\nsamples = 4\nvalue = [3, 1]"] ;
80 -> 81 ;
82 [label="gini = 0.0\nsamples = 2\nvalue = [2, 0]"] ;
80 -> 82 ;
83 [label="gini = 0.0\nsamples = 2\nvalue = [2, 0]"] ;
79 -> 83 ;
84 [label="education_n <= 1.0\ngini = 0.375\nsamples = 4\nvalue = [3, 1]"] ;
78 -> 84 ;
85 [label="avg_training_score <= 58.5\ngini = 0.444\nsamples = 3\nvalue = [2, 1]"] ;
84 -> 85 ;
86 [label="gini = 0.0\nsamples = 1\nvalue = [1, 0]"] ;
85 -> 86 ;
87 [label="gini = 0.5\nsamples = 2\nvalue = [1, 1]"] ;
85 -> 87 ;
88 [label="gini = 0.0\nsamples = 1\nvalue = [1, 0]"] ;
84 -> 88 ;
89 [label="gini = 0.0\nsamples = 10\nvalue = [10, 0]"] ;
75 -> 89 ;
90 [label="gini = 0.0\nsamples = 30\nvalue = [30, 0]"] ;
64 -> 90 ;
91 [label="gini = 0.0\nsamples = 64\nvalue = [64, 0]"] ;
47 -> 91 ;
92 [label="length_of_service <= 7.5\ngini = 0.053\nsamples = 691\nvalue = [672, 19]"] ;
44 -> 92 ;
93 [label="age <= 29.5\ngini = 0.056\nsamples = 662\nvalue = [643, 19]"] ;
92 -> 93 ;
94 [label="age <= 27.5\ngini = 0.045\nsamples = 389\nvalue = [380, 9]"] ;
93 -> 94 ;
95 [label="avg_training_score <= 58.5\ngini = 0.07\nsamples = 193\nvalue = [186, 7]"] ;
94 -> 95 ;
96 [label="length_of_service <= 3.5\ngini = 0.105\nsamples = 90\nvalue = [85, 5]"] ;
95 -> 96 ;
97 [label="previous_year_rating <= 1.5\ngini = 0.073\nsamples = 79\nvalue = [76, 3]"] ;
96 -> 97 ;
98 [label="length_of_service <= 2.5\ngini = 0.278\nsamples = 6\nvalue = [5, 1]"] ;
97 -> 98 ;
99 [label="age <= 26.0\ngini = 0.444\nsamples = 3\nvalue = [2, 1]"] ;
98 -> 99 ;
100 [label="gini = 0.0\nsamples = 1\nvalue = [1, 0]"] ;
99 -> 100 ;
101 [label="gini = 0.5\nsamples = 2\nvalue = [1, 1]"] ;
99 -> 101 ;
102 [label="gini = 0.0\nsamples = 3\nvalue = [3, 0]"] ;
98 -> 102 ;
103 [label="age <= 26.5\ngini = 0.053\nsamples = 73\nvalue = [71, 2]"] ;
97 -> 103 ;
104 [label="length_of_service <= 2.5\ngini = 0.095\nsamples = 40\nvalue = [38, 2]"] ;
103 -> 104 ;
105 [label="education_n <= 0.5\ngini = 0.117\nsamples = 32\nvalue = [30, 2]"] ;
104 -> 105 ;
106 [label="no_of_trainings <= 1.5\ngini = 0.133\nsamples = 28\nvalue = [26, 2]"] ;
105 -> 106 ;
107 [label="previous_year_rating <= 3.5\ngini = 0.147\nsamples = 25\nvalue = [23, 2]"] ;
106 -> 107 ;
108 [label="length_of_service <= 1.5\ngini = 0.159\nsamples = 23\nvalue = [21, 2]"] ;
107 -> 108 ;
109 [label="avg_training_score <= 57.5\ngini = 0.117\nsamples = 16\nvalue = [15, 1]"] ;
108 -> 109 ;
110 [label="age <= 25.5\ngini = 0.219\nsamples = 8\nvalue = [7, 1]"] ;
109 -> 110 ;
111 [label="gini = 0.32\nsamples = 5\nvalue = [4, 1]"] ;
110 -> 111 ;
112 [label="gini = 0.0\nsamples = 3\nvalue = [3, 0]"] ;
110 -> 112 ;
113 [label="gini = 0.0\nsamples = 8\nvalue = [8, 0]"] ;
109 -> 113 ;
114 [label="avg_training_score <= 57.5\ngini = 0.245\nsamples = 7\nvalue = [6, 1]"] ;
108 -> 114 ;
115 [label="gini = 0.0\nsamples = 4\nvalue = [4, 0]"] ;
114 -> 115 ;
116 [label="previous_year_rating <= 2.5\ngini = 0.444\nsamples = 3\nvalue = [2, 1]"] ;
114 -> 116 ;
117 [label="gini = 0.0\nsamples = 1\nvalue = [1, 0]"] ;
116 -> 117 ;
118 [label="gini = 0.5\nsamples = 2\nvalue = [1, 1]"] ;
116 -> 118 ;
119 [label="gini = 0.0\nsamples = 2\nvalue = [2, 0]"] ;
107 -> 119 ;
120 [label="gini = 0.0\nsamples = 3\nvalue = [3, 0]"] ;
106 -> 120 ;
121 [label="gini = 0.0\nsamples = 4\nvalue = [4, 0]"] ;
105 -> 121 ;
122 [label="gini = 0.0\nsamples = 8\nvalue = [8, 0]"] ;
104 -> 122 ;
123 [label="gini = 0.0\nsamples = 33\nvalue = [33, 0]"] ;
103 -> 123 ;
124 [label="previous_year_rating <= 3.5\ngini = 0.298\nsamples = 11\nvalue = [9, 2]"] ;
96 -> 124 ;
125 [label="gini = 0.0\nsamples = 7\nvalue = [7, 0]"] ;
124 -> 125 ;
126 [label="avg_training_score <= 57.5\ngini = 0.5\nsamples = 4\nvalue = [2, 2]"] ;
124 -> 126 ;
127 [label="age <= 26.5\ngini = 0.444\nsamples = 3\nvalue = [2, 1]"] ;
126 -> 127 ;
128 [label="length_of_service <= 4.5\ngini = 0.5\nsamples = 2\nvalue = [1, 1]"] ;
127 -> 128 ;
129 [label="gini = 0.0\nsamples = 1\nvalue = [0, 1]"] ;
128 -> 129 ;
130 [label="gini = 0.0\nsamples = 1\nvalue = [1, 0]"] ;
128 -> 130 ;
131 [label="gini = 0.0\nsamples = 1\nvalue = [1, 0]"] ;
127 -> 131 ;
132 [label="gini = 0.0\nsamples = 1\nvalue = [0, 1]"] ;
126 -> 132 ;
133 [label="previous_year_rating <= 2.5\ngini = 0.038\nsamples = 103\nvalue = [101, 2]"] ;
95 -> 133 ;
134 [label="previous_year_rating <= 1.5\ngini = 0.142\nsamples = 13\nvalue = [12, 1]"] ;
133 -> 134 ;
135 [label="gini = 0.0\nsamples = 7\nvalue = [7, 0]"] ;
134 -> 135 ;
136 [label="length_of_service <= 2.5\ngini = 0.278\nsamples = 6\nvalue = [5, 1]"] ;
134 -> 136 ;
137 [label="gini = 0.0\nsamples = 3\nvalue = [3, 0]"] ;
136 -> 137 ;
138 [label="avg_training_score <= 59.5\ngini = 0.444\nsamples = 3\nvalue = [2, 1]"] ;
136 -> 138 ;
139 [label="gini = 0.0\nsamples = 2\nvalue = [2, 0]"] ;
138 -> 139 ;
140 [label="gini = 0.0\nsamples = 1\nvalue = [0, 1]"] ;
138 -> 140 ;
141 [label="avg_training_score <= 59.5\ngini = 0.022\nsamples = 90\nvalue = [89, 1]"] ;
133 -> 141 ;
142 [label="length_of_service <= 1.5\ngini = 0.049\nsamples = 40\nvalue = [39, 1]"] ;
141 -> 142 ;
143 [label="gini = 0.0\nsamples = 18\nvalue = [18, 0]"] ;
142 -> 143 ;
144 [label="length_of_service <= 2.5\ngini = 0.087\nsamples = 22\nvalue = [21, 1]"] ;
142 -> 144 ;
145 [label="age <= 25.5\ngini = 0.18\nsamples = 10\nvalue = [9, 1]"] ;
144 -> 145 ;
146 [label="gini = 0.0\nsamples = 4\nvalue = [4, 0]"] ;
145 -> 146 ;
147 [label="age <= 26.5\ngini = 0.278\nsamples = 6\nvalue = [5, 1]"] ;
145 -> 147 ;
148 [label="gini = 0.5\nsamples = 2\nvalue = [1, 1]"] ;
147 -> 148 ;
149 [label="gini = 0.0\nsamples = 4\nvalue = [4, 0]"] ;
147 -> 149 ;
150 [label="gini = 0.0\nsamples = 12\nvalue = [12, 0]"] ;
144 -> 150 ;
151 [label="gini = 0.0\nsamples = 50\nvalue = [50, 0]"] ;
141 -> 151 ;
152 [label="avg_training_score <= 58.5\ngini = 0.02\nsamples = 196\nvalue = [194, 2]"] ;
94 -> 152 ;
153 [label="gini = 0.0\nsamples = 87\nvalue = [87, 0]"] ;
152 -> 153 ;
154 [label="length_of_service <= 3.5\ngini = 0.036\nsamples = 109\nvalue = [107, 2]"] ;
152 -> 154 ;
155 [label="length_of_service <= 2.5\ngini = 0.056\nsamples = 69\nvalue = [67, 2]"] ;
154 -> 155 ;
156 [label="length_of_service <= 1.5\ngini = 0.037\nsamples = 53\nvalue = [52, 1]"] ;
155 -> 156 ;
157 [label="age <= 28.5\ngini = 0.087\nsamples = 22\nvalue = [21, 1]"] ;
156 -> 157 ;
158 [label="gini = 0.0\nsamples = 14\nvalue = [14, 0]"] ;
157 -> 158 ;
159 [label="avg_training_score <= 59.5\ngini = 0.219\nsamples = 8\nvalue = [7, 1]"] ;
157 -> 159 ;
160 [label="gini = 0.5\nsamples = 2\nvalue = [1, 1]"] ;
159 -> 160 ;
161 [label="gini = 0.0\nsamples = 6\nvalue = [6, 0]"] ;
159 -> 161 ;
162 [label="gini = 0.0\nsamples = 31\nvalue = [31, 0]"] ;
156 -> 162 ;
163 [label="avg_training_score <= 59.5\ngini = 0.117\nsamples = 16\nvalue = [15, 1]"] ;
155 -> 163 ;
164 [label="gini = 0.0\nsamples = 8\nvalue = [8, 0]"] ;
163 -> 164 ;
165 [label="age <= 28.5\ngini = 0.219\nsamples = 8\nvalue = [7, 1]"] ;
163 -> 165 ;
166 [label="no_of_trainings <= 2.0\ngini = 0.375\nsamples = 4\nvalue = [3, 1]"] ;
165 -> 166 ;
167 [label="gini = 0.444\nsamples = 3\nvalue = [2, 1]"] ;
166 -> 167 ;
168 [label="gini = 0.0\nsamples = 1\nvalue = [1, 0]"] ;
166 -> 168 ;
169 [label="gini = 0.0\nsamples = 4\nvalue = [4, 0]"] ;
165 -> 169 ;
170 [label="gini = 0.0\nsamples = 40\nvalue = [40, 0]"] ;
154 -> 170 ;
171 [label="avg_training_score <= 59.5\ngini = 0.071\nsamples = 273\nvalue = [263, 10]"] ;
93 -> 171 ;
172 [label="previous_year_rating <= 3.5\ngini = 0.048\nsamples = 204\nvalue = [199, 5]"] ;
171 -> 172 ;
173 [label="length_of_service <= 3.5\ngini = 0.063\nsamples = 154\nvalue = [149, 5]"] ;
172 -> 173 ;
174 [label="age <= 31.5\ngini = 0.097\nsamples = 59\nvalue = [56, 3]"] ;
173 -> 174 ;
175 [label="education_n <= 1.0\ngini = 0.139\nsamples = 40\nvalue = [37, 3]"] ;
174 -> 175 ;
176 [label="age <= 30.5\ngini = 0.105\nsamples = 36\nvalue = [34, 2]"] ;
175 -> 176 ;
177 [label="avg_training_score <= 57.5\ngini = 0.147\nsamples = 25\nvalue = [23, 2]"] ;
176 -> 177 ;
178 [label="gini = 0.0\nsamples = 7\nvalue = [7, 0]"] ;
177 -> 178 ;
179 [label="previous_year_rating <= 2.5\ngini = 0.198\nsamples = 18\nvalue = [16, 2]"] ;
177 -> 179 ;
180 [label="gini = 0.0\nsamples = 4\nvalue = [4, 0]"] ;
179 -> 180 ;
181 [label="length_of_service <= 1.5\ngini = 0.245\nsamples = 14\nvalue = [12, 2]"] ;
179 -> 181 ;
182 [label="avg_training_score <= 58.5\ngini = 0.375\nsamples = 4\nvalue = [3, 1]"] ;
181 -> 182 ;
183 [label="gini = 0.0\nsamples = 1\nvalue = [1, 0]"] ;
182 -> 183 ;
184 [label="gini = 0.444\nsamples = 3\nvalue = [2, 1]"] ;
182 -> 184 ;
185 [label="length_of_service <= 2.5\ngini = 0.18\nsamples = 10\nvalue = [9, 1]"] ;
181 -> 185 ;
186 [label="gini = 0.0\nsamples = 5\nvalue = [5, 0]"] ;
185 -> 186 ;
187 [label="avg_training_score <= 58.5\ngini = 0.32\nsamples = 5\nvalue = [4, 1]"] ;
185 -> 187 ;
188 [label="gini = 0.444\nsamples = 3\nvalue = [2, 1]"] ;
187 -> 188 ;
189 [label="gini = 0.0\nsamples = 2\nvalue = [2, 0]"] ;
187 -> 189 ;
190 [label="gini = 0.0\nsamples = 11\nvalue = [11, 0]"] ;
176 -> 190 ;
191 [label="avg_training_score <= 57.5\ngini = 0.375\nsamples = 4\nvalue = [3, 1]"] ;
175 -> 191 ;
192 [label="gini = 0.0\nsamples = 1\nvalue = [0, 1]"] ;
191 -> 192 ;
193 [label="gini = 0.0\nsamples = 3\nvalue = [3, 0]"] ;
191 -> 193 ;
194 [label="gini = 0.0\nsamples = 19\nvalue = [19, 0]"] ;
174 -> 194 ;
195 [label="age <= 30.5\ngini = 0.041\nsamples = 95\nvalue = [93, 2]"] ;
173 -> 195 ;
196 [label="gini = 0.0\nsamples = 32\nvalue = [32, 0]"] ;
195 -> 196 ;
197 [label="previous_year_rating <= 1.5\ngini = 0.061\nsamples = 63\nvalue = [61, 2]"] ;
195 -> 197 ;
198 [label="length_of_service <= 5.5\ngini = 0.133\nsamples = 14\nvalue = [13, 1]"] ;
197 -> 198 ;
199 [label="length_of_service <= 4.5\ngini = 0.219\nsamples = 8\nvalue = [7, 1]"] ;
198 -> 199 ;
200 [label="gini = 0.0\nsamples = 4\nvalue = [4, 0]"] ;
199 -> 200 ;
201 [label="education_n <= 1.0\ngini = 0.375\nsamples = 4\nvalue = [3, 1]"] ;
199 -> 201 ;
202 [label="age <= 31.5\ngini = 0.444\nsamples = 3\nvalue = [2, 1]"] ;
201 -> 202 ;
203 [label="gini = 0.5\nsamples = 2\nvalue = [1, 1]"] ;
202 -> 203 ;
204 [label="gini = 0.0\nsamples = 1\nvalue = [1, 0]"] ;
202 -> 204 ;
205 [label="gini = 0.0\nsamples = 1\nvalue = [1, 0]"] ;
201 -> 205 ;
206 [label="gini = 0.0\nsamples = 6\nvalue = [6, 0]"] ;
198 -> 206 ;
207 [label="avg_training_score <= 57.5\ngini = 0.04\nsamples = 49\nvalue = [48, 1]"] ;
197 -> 207 ;
208 [label="length_of_service <= 5.5\ngini = 0.105\nsamples = 18\nvalue = [17, 1]"] ;
207 -> 208 ;
209 [label="gini = 0.0\nsamples = 8\nvalue = [8, 0]"] ;
208 -> 209 ;
210 [label="length_of_service <= 6.5\ngini = 0.18\nsamples = 10\nvalue = [9, 1]"] ;
208 -> 210 ;
211 [label="previous_year_rating <= 2.5\ngini = 0.278\nsamples = 6\nvalue = [5, 1]"] ;
210 -> 211 ;
212 [label="gini = 0.0\nsamples = 2\nvalue = [2, 0]"] ;
211 -> 212 ;
213 [label="age <= 31.5\ngini = 0.375\nsamples = 4\nvalue = [3, 1]"] ;
211 -> 213 ;
214 [label="gini = 0.0\nsamples = 2\nvalue = [2, 0]"] ;
213 -> 214 ;
215 [label="no_of_trainings <= 1.5\ngini = 0.5\nsamples = 2\nvalue = [1, 1]"] ;
213 -> 215 ;
216 [label="gini = 0.0\nsamples = 1\nvalue = [0, 1]"] ;
215 -> 216 ;
217 [label="gini = 0.0\nsamples = 1\nvalue = [1, 0]"] ;
215 -> 217 ;
218 [label="gini = 0.0\nsamples = 4\nvalue = [4, 0]"] ;
210 -> 218 ;
219 [label="gini = 0.0\nsamples = 31\nvalue = [31, 0]"] ;
207 -> 219 ;
220 [label="gini = 0.0\nsamples = 50\nvalue = [50, 0]"] ;
172 -> 220 ;
221 [label="length_of_service <= 2.5\ngini = 0.134\nsamples = 69\nvalue = [64, 5]"] ;
171 -> 221 ;
222 [label="gini = 0.0\nsamples = 18\nvalue = [18, 0]"] ;
221 -> 222 ;
223 [label="no_of_trainings <= 1.5\ngini = 0.177\nsamples = 51\nvalue = [46, 5]"] ;
221 -> 223 ;
224 [label="length_of_service <= 4.5\ngini = 0.219\nsamples = 40\nvalue = [35, 5]"] ;
223 -> 224 ;
225 [label="previous_year_rating <= 2.5\ngini = 0.278\nsamples = 18\nvalue = [15, 3]"] ;
224 -> 225 ;
226 [label="age <= 30.5\ngini = 0.444\nsamples = 3\nvalue = [2, 1]"] ;
225 -> 226 ;
227 [label="gini = 0.0\nsamples = 1\nvalue = [0, 1]"] ;
226 -> 227 ;
228 [label="gini = 0.0\nsamples = 2\nvalue = [2, 0]"] ;
226 -> 228 ;
229 [label="education_n <= 1.0\ngini = 0.231\nsamples = 15\nvalue = [13, 2]"] ;
225 -> 229 ;
230 [label="length_of_service <= 3.5\ngini = 0.142\nsamples = 13\nvalue = [12, 1]"] ;
229 -> 230 ;
231 [label="previous_year_rating <= 3.5\ngini = 0.219\nsamples = 8\nvalue = [7, 1]"] ;
230 -> 231 ;
232 [label="gini = 0.0\nsamples = 4\nvalue = [4, 0]"] ;
231 -> 232 ;
233 [label="age <= 30.5\ngini = 0.375\nsamples = 4\nvalue = [3, 1]"] ;
231 -> 233 ;
234 [label="gini = 0.0\nsamples = 1\nvalue = [1, 0]"] ;
233 -> 234 ;
235 [label="gini = 0.444\nsamples = 3\nvalue = [2, 1]"] ;
233 -> 235 ;
236 [label="gini = 0.0\nsamples = 5\nvalue = [5, 0]"] ;
230 -> 236 ;
237 [label="length_of_service <= 3.5\ngini = 0.5\nsamples = 2\nvalue = [1, 1]"] ;
229 -> 237 ;
238 [label="gini = 0.0\nsamples = 1\nvalue = [1, 0]"] ;
237 -> 238 ;
239 [label="gini = 0.0\nsamples = 1\nvalue = [0, 1]"] ;
237 -> 239 ;
240 [label="length_of_service <= 5.5\ngini = 0.165\nsamples = 22\nvalue = [20, 2]"] ;
224 -> 240 ;
241 [label="gini = 0.0\nsamples = 9\nvalue = [9, 0]"] ;
240 -> 241 ;
242 [label="previous_year_rating <= 2.5\ngini = 0.26\nsamples = 13\nvalue = [11, 2]"] ;
240 -> 242 ;
243 [label="gini = 0.0\nsamples = 2\nvalue = [2, 0]"] ;
242 -> 243 ;
244 [label="education_n <= 1.0\ngini = 0.298\nsamples = 11\nvalue = [9, 2]"] ;
242 -> 244 ;
245 [label="previous_year_rating <= 3.5\ngini = 0.32\nsamples = 10\nvalue = [8, 2]"] ;
244 -> 245 ;
246 [label="age <= 31.5\ngini = 0.245\nsamples = 7\nvalue = [6, 1]"] ;
245 -> 246 ;
247 [label="gini = 0.0\nsamples = 4\nvalue = [4, 0]"] ;
246 -> 247 ;
248 [label="gini = 0.444\nsamples = 3\nvalue = [2, 1]"] ;
246 -> 248 ;
249 [label="length_of_service <= 6.5\ngini = 0.444\nsamples = 3\nvalue = [2, 1]"] ;
245 -> 249 ;
250 [label="gini = 0.0\nsamples = 2\nvalue = [2, 0]"] ;
249 -> 250 ;
251 [label="gini = 0.0\nsamples = 1\nvalue = [0, 1]"] ;
249 -> 251 ;
252 [label="gini = 0.0\nsamples = 1\nvalue = [1, 0]"] ;
244 -> 252 ;
253 [label="gini = 0.0\nsamples = 11\nvalue = [11, 0]"] ;
223 -> 253 ;
254 [label="gini = 0.0\nsamples = 29\nvalue = [29, 0]"] ;
92 -> 254 ;
255 [label="gender_n <= 0.5\ngini = 0.017\nsamples = 1496\nvalue = [1483, 13]"] ;
41 -> 255 ;
256 [label="age <= 34.5\ngini = 0.004\nsamples = 557\nvalue = [556, 1]"] ;
255 -> 256 ;
257 [label="previous_year_rating <= 3.5\ngini = 0.019\nsamples = 106\nvalue = [105, 1]"] ;
256 -> 257 ;
258 [label="gini = 0.0\nsamples = 79\nvalue = [79, 0]"] ;
257 -> 258 ;
259 [label="length_of_service <= 6.5\ngini = 0.071\nsamples = 27\nvalue = [26, 1]"] ;
257 -> 259 ;
260 [label="gini = 0.0\nsamples = 14\nvalue = [14, 0]"] ;
259 -> 260 ;
261 [label="length_of_service <= 7.5\ngini = 0.142\nsamples = 13\nvalue = [12, 1]"] ;
259 -> 261 ;
262 [label="education_n <= 1.0\ngini = 0.5\nsamples = 2\nvalue = [1, 1]"] ;
261 -> 262 ;
263 [label="gini = 0.0\nsamples = 1\nvalue = [0, 1]"] ;
262 -> 263 ;
264 [label="gini = 0.0\nsamples = 1\nvalue = [1, 0]"] ;
262 -> 264 ;
265 [label="gini = 0.0\nsamples = 11\nvalue = [11, 0]"] ;
261 -> 265 ;
266 [label="gini = 0.0\nsamples = 451\nvalue = [451, 0]"] ;
256 -> 266 ;
267 [label="previous_year_rating <= 2.5\ngini = 0.025\nsamples = 939\nvalue = [927, 12]"] ;
255 -> 267 ;
268 [label="gini = 0.0\nsamples = 216\nvalue = [216, 0]"] ;
267 -> 268 ;
269 [label="avg_training_score <= 57.5\ngini = 0.033\nsamples = 723\nvalue = [711, 12]"] ;
267 -> 269 ;
270 [label="gini = 0.0\nsamples = 147\nvalue = [147, 0]"] ;
269 -> 270 ;
271 [label="age <= 41.5\ngini = 0.041\nsamples = 576\nvalue = [564, 12]"] ;
269 -> 271 ;
272 [label="previous_year_rating <= 3.5\ngini = 0.054\nsamples = 361\nvalue = [351, 10]"] ;
271 -> 272 ;
273 [label="length_of_service <= 8.5\ngini = 0.075\nsamples = 230\nvalue = [221, 9]"] ;
272 -> 273 ;
274 [label="length_of_service <= 6.5\ngini = 0.093\nsamples = 163\nvalue = [155, 8]"] ;
273 -> 274 ;
275 [label="age <= 34.5\ngini = 0.056\nsamples = 104\nvalue = [101, 3]"] ;
274 -> 275 ;
276 [label="gini = 0.0\nsamples = 40\nvalue = [40, 0]"] ;
275 -> 276 ;
277 [label="avg_training_score <= 59.5\ngini = 0.089\nsamples = 64\nvalue = [61, 3]"] ;
275 -> 277 ;
278 [label="avg_training_score <= 58.5\ngini = 0.05\nsamples = 39\nvalue = [38, 1]"] ;
277 -> 278 ;
279 [label="length_of_service <= 4.5\ngini = 0.124\nsamples = 15\nvalue = [14, 1]"] ;
278 -> 279 ;
280 [label="age <= 36.5\ngini = 0.278\nsamples = 6\nvalue = [5, 1]"] ;
279 -> 280 ;
281 [label="gini = 0.0\nsamples = 4\nvalue = [4, 0]"] ;
280 -> 281 ;
282 [label="education_n <= 1.0\ngini = 0.5\nsamples = 2\nvalue = [1, 1]"] ;
280 -> 282 ;
283 [label="gini = 0.0\nsamples = 1\nvalue = [1, 0]"] ;
282 -> 283 ;
284 [label="gini = 0.0\nsamples = 1\nvalue = [0, 1]"] ;
282 -> 284 ;
285 [label="gini = 0.0\nsamples = 9\nvalue = [9, 0]"] ;
279 -> 285 ;
286 [label="gini = 0.0\nsamples = 24\nvalue = [24, 0]"] ;
278 -> 286 ;
287 [label="age <= 35.5\ngini = 0.147\nsamples = 25\nvalue = [23, 2]"] ;
277 -> 287 ;
288 [label="no_of_trainings <= 1.5\ngini = 0.375\nsamples = 4\nvalue = [3, 1]"] ;
287 -> 288 ;
289 [label="gini = 0.0\nsamples = 2\nvalue = [2, 0]"] ;
288 -> 289 ;
290 [label="education_n <= 1.0\ngini = 0.5\nsamples = 2\nvalue = [1, 1]"] ;
288 -> 290 ;
291 [label="gini = 0.0\nsamples = 1\nvalue = [0, 1]"] ;
290 -> 291 ;
292 [label="gini = 0.0\nsamples = 1\nvalue = [1, 0]"] ;
290 -> 292 ;
293 [label="age <= 38.5\ngini = 0.091\nsamples = 21\nvalue = [20, 1]"] ;
287 -> 293 ;
294 [label="gini = 0.0\nsamples = 11\nvalue = [11, 0]"] ;
293 -> 294 ;
295 [label="age <= 39.5\ngini = 0.18\nsamples = 10\nvalue = [9, 1]"] ;
293 -> 295 ;
296 [label="length_of_service <= 4.5\ngini = 0.444\nsamples = 3\nvalue = [2, 1]"] ;
295 -> 296 ;
297 [label="gini = 0.0\nsamples = 1\nvalue = [1, 0]"] ;
296 -> 297 ;
298 [label="gini = 0.5\nsamples = 2\nvalue = [1, 1]"] ;
296 -> 298 ;
299 [label="gini = 0.0\nsamples = 7\nvalue = [7, 0]"] ;
295 -> 299 ;
300 [label="age <= 40.5\ngini = 0.155\nsamples = 59\nvalue = [54, 5]"] ;
274 -> 300 ;
301 [label="education_n <= 1.0\ngini = 0.133\nsamples = 56\nvalue = [52, 4]"] ;
300 -> 301 ;
302 [label="age <= 37.5\ngini = 0.061\nsamples = 32\nvalue = [31, 1]"] ;
301 -> 302 ;
303 [label="gini = 0.0\nsamples = 26\nvalue = [26, 0]"] ;
302 -> 303 ;
304 [label="avg_training_score <= 59.5\ngini = 0.278\nsamples = 6\nvalue = [5, 1]"] ;
302 -> 304 ;
305 [label="gini = 0.0\nsamples = 4\nvalue = [4, 0]"] ;
304 -> 305 ;
306 [label="gini = 0.5\nsamples = 2\nvalue = [1, 1]"] ;
304 -> 306 ;
307 [label="length_of_service <= 7.5\ngini = 0.219\nsamples = 24\nvalue = [21, 3]"] ;
301 -> 307 ;
308 [label="age <= 37.5\ngini = 0.291\nsamples = 17\nvalue = [14, 3]"] ;
307 -> 308 ;
309 [label="age <= 36.5\ngini = 0.375\nsamples = 12\nvalue = [9, 3]"] ;
308 -> 309 ;
310 [label="no_of_trainings <= 1.5\ngini = 0.298\nsamples = 11\nvalue = [9, 2]"] ;
309 -> 310 ;
311 [label="age <= 33.5\ngini = 0.346\nsamples = 9\nvalue = [7, 2]"] ;
310 -> 311 ;
312 [label="avg_training_score <= 59.5\ngini = 0.5\nsamples = 2\nvalue = [1, 1]"] ;
311 -> 312 ;
313 [label="gini = 0.0\nsamples = 1\nvalue = [0, 1]"] ;
312 -> 313 ;
314 [label="gini = 0.0\nsamples = 1\nvalue = [1, 0]"] ;
312 -> 314 ;
315 [label="avg_training_score <= 59.5\ngini = 0.245\nsamples = 7\nvalue = [6, 1]"] ;
311 -> 315 ;
316 [label="gini = 0.0\nsamples = 4\nvalue = [4, 0]"] ;
315 -> 316 ;
317 [label="age <= 34.5\ngini = 0.444\nsamples = 3\nvalue = [2, 1]"] ;
315 -> 317 ;
318 [label="gini = 0.0\nsamples = 1\nvalue = [0, 1]"] ;
317 -> 318 ;
319 [label="gini = 0.0\nsamples = 2\nvalue = [2, 0]"] ;
317 -> 319 ;
320 [label="gini = 0.0\nsamples = 2\nvalue = [2, 0]"] ;
310 -> 320 ;
321 [label="gini = 0.0\nsamples = 1\nvalue = [0, 1]"] ;
309 -> 321 ;
322 [label="gini = 0.0\nsamples = 5\nvalue = [5, 0]"] ;
308 -> 322 ;
323 [label="gini = 0.0\nsamples = 7\nvalue = [7, 0]"] ;
307 -> 323 ;
324 [label="education_n <= 1.0\ngini = 0.444\nsamples = 3\nvalue = [2, 1]"] ;
300 -> 324 ;
325 [label="gini = 0.0\nsamples = 1\nvalue = [0, 1]"] ;
324 -> 325 ;
326 [label="gini = 0.0\nsamples = 2\nvalue = [2, 0]"] ;
324 -> 326 ;
327 [label="avg_training_score <= 58.5\ngini = 0.029\nsamples = 67\nvalue = [66, 1]"] ;
273 -> 327 ;
328 [label="age <= 38.5\ngini = 0.087\nsamples = 22\nvalue = [21, 1]"] ;
327 -> 328 ;
329 [label="gini = 0.0\nsamples = 13\nvalue = [13, 0]"] ;
328 -> 329 ;
330 [label="age <= 39.5\ngini = 0.198\nsamples = 9\nvalue = [8, 1]"] ;
328 -> 330 ;
331 [label="no_of_trainings <= 1.5\ngini = 0.32\nsamples = 5\nvalue = [4, 1]"] ;
330 -> 331 ;
332 [label="length_of_service <= 11.0\ngini = 0.444\nsamples = 3\nvalue = [2, 1]"] ;
331 -> 332 ;
333 [label="gini = 0.5\nsamples = 2\nvalue = [1, 1]"] ;
332 -> 333 ;
334 [label="gini = 0.0\nsamples = 1\nvalue = [1, 0]"] ;
332 -> 334 ;
335 [label="gini = 0.0\nsamples = 2\nvalue = [2, 0]"] ;
331 -> 335 ;
336 [label="gini = 0.0\nsamples = 4\nvalue = [4, 0]"] ;
330 -> 336 ;
337 [label="gini = 0.0\nsamples = 45\nvalue = [45, 0]"] ;
327 -> 337 ;
338 [label="age <= 39.5\ngini = 0.015\nsamples = 131\nvalue = [130, 1]"] ;
272 -> 338 ;
339 [label="gini = 0.0\nsamples = 104\nvalue = [104, 0]"] ;
338 -> 339 ;
340 [label="education_n <= 1.0\ngini = 0.071\nsamples = 27\nvalue = [26, 1]"] ;
338 -> 340 ;
341 [label="gini = 0.0\nsamples = 17\nvalue = [17, 0]"] ;
340 -> 341 ;
342 [label="avg_training_score <= 59.5\ngini = 0.18\nsamples = 10\nvalue = [9, 1]"] ;
340 -> 342 ;
343 [label="gini = 0.0\nsamples = 5\nvalue = [5, 0]"] ;
342 -> 343 ;
344 [label="length_of_service <= 4.5\ngini = 0.32\nsamples = 5\nvalue = [4, 1]"] ;
342 -> 344 ;
345 [label="gini = 0.0\nsamples = 3\nvalue = [3, 0]"] ;
344 -> 345 ;
346 [label="length_of_service <= 6.5\ngini = 0.5\nsamples = 2\nvalue = [1, 1]"] ;
344 -> 346 ;
347 [label="gini = 0.0\nsamples = 1\nvalue = [0, 1]"] ;
346 -> 347 ;
348 [label="gini = 0.0\nsamples = 1\nvalue = [1, 0]"] ;
346 -> 348 ;
349 [label="length_of_service <= 18.5\ngini = 0.018\nsamples = 215\nvalue = [213, 2]"] ;
271 -> 349 ;
350 [label="length_of_service <= 13.5\ngini = 0.01\nsamples = 199\nvalue = [198, 1]"] ;
349 -> 350 ;
351 [label="gini = 0.0\nsamples = 137\nvalue = [137, 0]"] ;
350 -> 351 ;
352 [label="age <= 44.5\ngini = 0.032\nsamples = 62\nvalue = [61, 1]"] ;
350 -> 352 ;
353 [label="length_of_service <= 14.5\ngini = 0.165\nsamples = 11\nvalue = [10, 1]"] ;
352 -> 353 ;
354 [label="previous_year_rating <= 3.5\ngini = 0.444\nsamples = 3\nvalue = [2, 1]"] ;
353 -> 354 ;
355 [label="gini = 0.0\nsamples = 2\nvalue = [2, 0]"] ;
354 -> 355 ;
356 [label="gini = 0.0\nsamples = 1\nvalue = [0, 1]"] ;
354 -> 356 ;
357 [label="gini = 0.0\nsamples = 8\nvalue = [8, 0]"] ;
353 -> 357 ;
358 [label="gini = 0.0\nsamples = 51\nvalue = [51, 0]"] ;
352 -> 358 ;
359 [label="avg_training_score <= 58.5\ngini = 0.117\nsamples = 16\nvalue = [15, 1]"] ;
349 -> 359 ;
360 [label="gini = 0.0\nsamples = 10\nvalue = [10, 0]"] ;
359 -> 360 ;
361 [label="avg_training_score <= 59.5\ngini = 0.278\nsamples = 6\nvalue = [5, 1]"] ;
359 -> 361 ;
362 [label="education_n <= 1.0\ngini = 0.5\nsamples = 2\nvalue = [1, 1]"] ;
361 -> 362 ;
363 [label="gini = 0.0\nsamples = 1\nvalue = [1, 0]"] ;
362 -> 363 ;
364 [label="gini = 0.0\nsamples = 1\nvalue = [0, 1]"] ;
362 -> 364 ;
365 [label="gini = 0.0\nsamples = 4\nvalue = [4, 0]"] ;
361 -> 365 ;
366 [label="avg_training_score <= 88.5\ngini = 0.072\nsamples = 10102\nvalue = [9726, 376]"] ;
4 -> 366 ;
367 [label="previous_year_rating <= 1.5\ngini = 0.068\nsamples = 9963\nvalue = [9611, 352]"] ;
366 -> 367 ;
368 [label="length_of_service <= 14.5\ngini = 0.022\nsamples = 1346\nvalue = [1331, 15]"] ;
367 -> 368 ;
369 [label="avg_training_score <= 87.5\ngini = 0.017\nsamples = 1268\nvalue = [1257, 11]"] ;
368 -> 369 ;
370 [label="avg_training_score <= 65.5\ngini = 0.016\nsamples = 1254\nvalue = [1244, 10]"] ;
369 -> 370 ;
371 [label="education_n <= 1.5\ngini = 0.038\nsamples = 205\nvalue = [201, 4]"] ;
370 -> 371 ;
372 [label="age <= 28.5\ngini = 0.012\nsamples = 172\nvalue = [171, 1]"] ;
371 -> 372 ;
373 [label="length_of_service <= 4.5\ngini = 0.051\nsamples = 38\nvalue = [37, 1]"] ;
372 -> 373 ;
374 [label="gini = 0.0\nsamples = 32\nvalue = [32, 0]"] ;
373 -> 374 ;
375 [label="length_of_service <= 5.5\ngini = 0.278\nsamples = 6\nvalue = [5, 1]"] ;
373 -> 375 ;
376 [label="avg_training_score <= 63.0\ngini = 0.444\nsamples = 3\nvalue = [2, 1]"] ;
375 -> 376 ;
377 [label="gini = 0.0\nsamples = 1\nvalue = [0, 1]"] ;
376 -> 377 ;
378 [label="gini = 0.0\nsamples = 2\nvalue = [2, 0]"] ;
376 -> 378 ;
379 [label="gini = 0.0\nsamples = 3\nvalue = [3, 0]"] ;
375 -> 379 ;
380 [label="gini = 0.0\nsamples = 134\nvalue = [134, 0]"] ;
372 -> 380 ;
381 [label="no_of_trainings <= 2.5\ngini = 0.165\nsamples = 33\nvalue = [30, 3]"] ;
371 -> 381 ;
382 [label="avg_training_score <= 64.5\ngini = 0.117\nsamples = 32\nvalue = [30, 2]"] ;
381 -> 382 ;
383 [label="gini = 0.0\nsamples = 26\nvalue = [26, 0]"] ;
382 -> 383 ;
384 [label="age <= 35.5\ngini = 0.444\nsamples = 6\nvalue = [4, 2]"] ;
382 -> 384 ;
385 [label="length_of_service <= 4.5\ngini = 0.444\nsamples = 3\nvalue = [1, 2]"] ;
384 -> 385 ;
386 [label="gini = 0.0\nsamples = 2\nvalue = [0, 2]"] ;
385 -> 386 ;
387 [label="gini = 0.0\nsamples = 1\nvalue = [1, 0]"] ;
385 -> 387 ;
388 [label="gini = 0.0\nsamples = 3\nvalue = [3, 0]"] ;
384 -> 388 ;
389 [label="gini = 0.0\nsamples = 1\nvalue = [0, 1]"] ;
381 -> 389 ;
390 [label="age <= 29.5\ngini = 0.011\nsamples = 1049\nvalue = [1043, 6]"] ;
370 -> 390 ;
391 [label="length_of_service <= 5.5\ngini = 0.032\nsamples = 248\nvalue = [244, 4]"] ;
390 -> 391 ;
392 [label="age <= 28.5\ngini = 0.017\nsamples = 230\nvalue = [228, 2]"] ;
391 -> 392 ;
393 [label="gini = 0.0\nsamples = 165\nvalue = [165, 0]"] ;
392 -> 393 ;
394 [label="length_of_service <= 3.5\ngini = 0.06\nsamples = 65\nvalue = [63, 2]"] ;
392 -> 394 ;
395 [label="gini = 0.0\nsamples = 38\nvalue = [38, 0]"] ;
394 -> 395 ;
396 [label="avg_training_score <= 78.5\ngini = 0.137\nsamples = 27\nvalue = [25, 2]"] ;
394 -> 396 ;
397 [label="gini = 0.0\nsamples = 12\nvalue = [12, 0]"] ;
396 -> 397 ;
398 [label="avg_training_score <= 79.5\ngini = 0.231\nsamples = 15\nvalue = [13, 2]"] ;
396 -> 398 ;
399 [label="gini = 0.0\nsamples = 1\nvalue = [0, 1]"] ;
398 -> 399 ;
400 [label="avg_training_score <= 80.5\ngini = 0.133\nsamples = 14\nvalue = [13, 1]"] ;
398 -> 400 ;
401 [label="no_of_trainings <= 1.5\ngini = 0.444\nsamples = 3\nvalue = [2, 1]"] ;
400 -> 401 ;
402 [label="gini = 0.0\nsamples = 2\nvalue = [2, 0]"] ;
401 -> 402 ;
403 [label="gini = 0.0\nsamples = 1\nvalue = [0, 1]"] ;
401 -> 403 ;
404 [label="gini = 0.0\nsamples = 11\nvalue = [11, 0]"] ;
400 -> 404 ;
405 [label="avg_training_score <= 81.0\ngini = 0.198\nsamples = 18\nvalue = [16, 2]"] ;
391 -> 405 ;
406 [label="gini = 0.0\nsamples = 8\nvalue = [8, 0]"] ;
405 -> 406 ;
407 [label="avg_training_score <= 82.5\ngini = 0.32\nsamples = 10\nvalue = [8, 2]"] ;
405 -> 407 ;
408 [label="no_of_trainings <= 1.5\ngini = 0.48\nsamples = 5\nvalue = [3, 2]"] ;
407 -> 408 ;
409 [label="age <= 28.5\ngini = 0.5\nsamples = 4\nvalue = [2, 2]"] ;
408 -> 409 ;
410 [label="gini = 0.0\nsamples = 1\nvalue = [0, 1]"] ;
409 -> 410 ;
411 [label="length_of_service <= 6.5\ngini = 0.444\nsamples = 3\nvalue = [2, 1]"] ;
409 -> 411 ;
412 [label="gini = 0.5\nsamples = 2\nvalue = [1, 1]"] ;
411 -> 412 ;
413 [label="gini = 0.0\nsamples = 1\nvalue = [1, 0]"] ;
411 -> 413 ;
414 [label="gini = 0.0\nsamples = 1\nvalue = [1, 0]"] ;
408 -> 414 ;
415 [label="gini = 0.0\nsamples = 5\nvalue = [5, 0]"] ;
407 -> 415 ;
416 [label="length_of_service <= 2.5\ngini = 0.005\nsamples = 801\nvalue = [799, 2]"] ;
390 -> 416 ;
417 [label="age <= 40.5\ngini = 0.027\nsamples = 72\nvalue = [71, 1]"] ;
416 -> 417 ;
418 [label="gini = 0.0\nsamples = 64\nvalue = [64, 0]"] ;
417 -> 418 ;
419 [label="gender_n <= 0.5\ngini = 0.219\nsamples = 8\nvalue = [7, 1]"] ;
417 -> 419 ;
420 [label="gini = 0.0\nsamples = 5\nvalue = [5, 0]"] ;
419 -> 420 ;
421 [label="age <= 41.5\ngini = 0.444\nsamples = 3\nvalue = [2, 1]"] ;
419 -> 421 ;
422 [label="gini = 0.0\nsamples = 1\nvalue = [0, 1]"] ;
421 -> 422 ;
423 [label="gini = 0.0\nsamples = 2\nvalue = [2, 0]"] ;
421 -> 423 ;
424 [label="length_of_service <= 7.5\ngini = 0.003\nsamples = 729\nvalue = [728, 1]"] ;
416 -> 424 ;
425 [label="gini = 0.0\nsamples = 482\nvalue = [482, 0]"] ;
424 -> 425 ;
426 [label="length_of_service <= 8.5\ngini = 0.008\nsamples = 247\nvalue = [246, 1]"] ;
424 -> 426 ;
427 [label="avg_training_score <= 75.5\ngini = 0.026\nsamples = 75\nvalue = [74, 1]"] ;
426 -> 427 ;
428 [label="avg_training_score <= 74.5\ngini = 0.064\nsamples = 30\nvalue = [29, 1]"] ;
427 -> 428 ;
429 [label="gini = 0.0\nsamples = 29\nvalue = [29, 0]"] ;
428 -> 429 ;
430 [label="gini = 0.0\nsamples = 1\nvalue = [0, 1]"] ;
428 -> 430 ;
431 [label="gini = 0.0\nsamples = 45\nvalue = [45, 0]"] ;
427 -> 431 ;
432 [label="gini = 0.0\nsamples = 172\nvalue = [172, 0]"] ;
426 -> 432 ;
433 [label="age <= 36.5\ngini = 0.133\nsamples = 14\nvalue = [13, 1]"] ;
369 -> 433 ;
434 [label="gini = 0.0\nsamples = 8\nvalue = [8, 0]"] ;
433 -> 434 ;
435 [label="age <= 37.5\ngini = 0.278\nsamples = 6\nvalue = [5, 1]"] ;
433 -> 435 ;
436 [label="gini = 0.5\nsamples = 2\nvalue = [1, 1]"] ;
435 -> 436 ;
437 [label="gini = 0.0\nsamples = 4\nvalue = [4, 0]"] ;
435 -> 437 ;
438 [label="avg_training_score <= 63.5\ngini = 0.097\nsamples = 78\nvalue = [74, 4]"] ;
368 -> 438 ;
439 [label="avg_training_score <= 62.5\ngini = 0.375\nsamples = 8\nvalue = [6, 2]"] ;
438 -> 439 ;
440 [label="age <= 47.0\ngini = 0.245\nsamples = 7\nvalue = [6, 1]"] ;
439 -> 440 ;
441 [label="length_of_service <= 16.0\ngini = 0.5\nsamples = 2\nvalue = [1, 1]"] ;
440 -> 441 ;
442 [label="gini = 0.0\nsamples = 1\nvalue = [1, 0]"] ;
441 -> 442 ;
443 [label="gini = 0.0\nsamples = 1\nvalue = [0, 1]"] ;
441 -> 443 ;
444 [label="gini = 0.0\nsamples = 5\nvalue = [5, 0]"] ;
440 -> 444 ;
445 [label="gini = 0.0\nsamples = 1\nvalue = [0, 1]"] ;
439 -> 445 ;
446 [label="age <= 43.5\ngini = 0.056\nsamples = 70\nvalue = [68, 2]"] ;
438 -> 446 ;
447 [label="avg_training_score <= 75.0\ngini = 0.198\nsamples = 9\nvalue = [8, 1]"] ;
446 -> 447 ;
448 [label="gini = 0.0\nsamples = 4\nvalue = [4, 0]"] ;
447 -> 448 ;
449 [label="avg_training_score <= 78.0\ngini = 0.32\nsamples = 5\nvalue = [4, 1]"] ;
447 -> 449 ;
450 [label="gini = 0.0\nsamples = 1\nvalue = [0, 1]"] ;
449 -> 450 ;
451 [label="gini = 0.0\nsamples = 4\nvalue = [4, 0]"] ;
449 -> 451 ;
452 [label="avg_training_score <= 70.5\ngini = 0.032\nsamples = 61\nvalue = [60, 1]"] ;
446 -> 452 ;
453 [label="avg_training_score <= 69.5\ngini = 0.1\nsamples = 19\nvalue = [18, 1]"] ;
452 -> 453 ;
454 [label="gini = 0.0\nsamples = 13\nvalue = [13, 0]"] ;
453 -> 454 ;
455 [label="age <= 51.0\ngini = 0.278\nsamples = 6\nvalue = [5, 1]"] ;
453 -> 455 ;
456 [label="gini = 0.0\nsamples = 4\nvalue = [4, 0]"] ;
455 -> 456 ;
457 [label="length_of_service <= 20.0\ngini = 0.5\nsamples = 2\nvalue = [1, 1]"] ;
455 -> 457 ;
458 [label="gini = 0.0\nsamples = 1\nvalue = [0, 1]"] ;
457 -> 458 ;
459 [label="gini = 0.0\nsamples = 1\nvalue = [1, 0]"] ;
457 -> 459 ;
460 [label="gini = 0.0\nsamples = 42\nvalue = [42, 0]"] ;
452 -> 460 ;
461 [label="no_of_trainings <= 1.5\ngini = 0.075\nsamples = 8617\nvalue = [8280, 337]"] ;
367 -> 461 ;
462 [label="avg_training_score <= 75.5\ngini = 0.083\nsamples = 6669\nvalue = [6381, 288]"] ;
461 -> 462 ;
463 [label="avg_training_score <= 71.5\ngini = 0.094\nsamples = 3424\nvalue = [3255, 169]"] ;
462 -> 463 ;
464 [label="gender_n <= 0.5\ngini = 0.082\nsamples = 2878\nvalue = [2755, 123]"] ;
463 -> 464 ;
465 [label="age <= 21.5\ngini = 0.055\nsamples = 1192\nvalue = [1158, 34]"] ;
464 -> 465 ;
466 [label="avg_training_score <= 65.0\ngini = 0.5\nsamples = 2\nvalue = [1, 1]"] ;
465 -> 466 ;
467 [label="gini = 0.0\nsamples = 1\nvalue = [0, 1]"] ;
466 -> 467 ;
468 [label="gini = 0.0\nsamples = 1\nvalue = [1, 0]"] ;
466 -> 468 ;
469 [label="age <= 58.5\ngini = 0.054\nsamples = 1190\nvalue = [1157, 33]"] ;
465 -> 469 ;
470 [label="length_of_service <= 12.5\ngini = 0.051\nsamples = 1175\nvalue = [1144, 31]"] ;
469 -> 470 ;
471 [label="age <= 36.5\ngini = 0.046\nsamples = 1069\nvalue = [1044, 25]"] ;
470 -> 471 ;
472 [label="age <= 30.5\ngini = 0.056\nsamples = 760\nvalue = [738, 22]"] ;
471 -> 472 ;
473 [label="age <= 27.5\ngini = 0.029\nsamples = 337\nvalue = [332, 5]"] ;
472 -> 473 ;
474 [label="length_of_service <= 5.5\ngini = 0.051\nsamples = 154\nvalue = [150, 4]"] ;
473 -> 474 ;
475 [label="avg_training_score <= 63.5\ngini = 0.04\nsamples = 146\nvalue = [143, 3]"] ;
474 -> 475 ;
476 [label="gini = 0.0\nsamples = 61\nvalue = [61, 0]"] ;
475 -> 476 ;
477 [label="avg_training_score <= 64.5\ngini = 0.068\nsamples = 85\nvalue = [82, 3]"] ;
475 -> 477 ;
478 [label="age <= 25.5\ngini = 0.245\nsamples = 7\nvalue = [6, 1]"] ;
477 -> 478 ;
479 [label="gini = 0.0\nsamples = 5\nvalue = [5, 0]"] ;
478 -> 479 ;
480 [label="gini = 0.5\nsamples = 2\nvalue = [1, 1]"] ;
478 -> 480 ;
481 [label="education_n <= 0.5\ngini = 0.05\nsamples = 78\nvalue = [76, 2]"] ;
477 -> 481 ;
482 [label="previous_year_rating <= 3.5\ngini = 0.028\nsamples = 71\nvalue = [70, 1]"] ;
481 -> 482 ;
483 [label="gini = 0.0\nsamples = 59\nvalue = [59, 0]"] ;
482 -> 483 ;
484 [label="length_of_service <= 3.5\ngini = 0.153\nsamples = 12\nvalue = [11, 1]"] ;
482 -> 484 ;
485 [label="gini = 0.0\nsamples = 8\nvalue = [8, 0]"] ;
484 -> 485 ;
486 [label="avg_training_score <= 69.5\ngini = 0.375\nsamples = 4\nvalue = [3, 1]"] ;
484 -> 486 ;
487 [label="gini = 0.0\nsamples = 3\nvalue = [3, 0]"] ;
486 -> 487 ;
488 [label="gini = 0.0\nsamples = 1\nvalue = [0, 1]"] ;
486 -> 488 ;
489 [label="length_of_service <= 2.5\ngini = 0.245\nsamples = 7\nvalue = [6, 1]"] ;
481 -> 489 ;
490 [label="gini = 0.0\nsamples = 5\nvalue = [5, 0]"] ;
489 -> 490 ;
491 [label="avg_training_score <= 69.5\ngini = 0.5\nsamples = 2\nvalue = [1, 1]"] ;
489 -> 491 ;
492 [label="gini = 0.0\nsamples = 1\nvalue = [0, 1]"] ;
491 -> 492 ;
493 [label="gini = 0.0\nsamples = 1\nvalue = [1, 0]"] ;
491 -> 493 ;
494 [label="avg_training_score <= 63.0\ngini = 0.219\nsamples = 8\nvalue = [7, 1]"] ;
474 -> 494 ;
495 [label="avg_training_score <= 61.5\ngini = 0.375\nsamples = 4\nvalue = [3, 1]"] ;
494 -> 495 ;
496 [label="gini = 0.0\nsamples = 1\nvalue = [1, 0]"] ;
495 -> 496 ;
497 [label="length_of_service <= 6.5\ngini = 0.444\nsamples = 3\nvalue = [2, 1]"] ;
495 -> 497 ;
498 [label="gini = 0.5\nsamples = 2\nvalue = [1, 1]"] ;
497 -> 498 ;
499 [label="gini = 0.0\nsamples = 1\nvalue = [1, 0]"] ;
497 -> 499 ;
500 [label="gini = 0.0\nsamples = 4\nvalue = [4, 0]"] ;
494 -> 500 ;
501 [label="length_of_service <= 1.5\ngini = 0.011\nsamples = 183\nvalue = [182, 1]"] ;
473 -> 501 ;
502 [label="avg_training_score <= 65.5\ngini = 0.054\nsamples = 36\nvalue = [35, 1]"] ;
501 -> 502 ;
503 [label="gini = 0.0\nsamples = 22\nvalue = [22, 0]"] ;
502 -> 503 ;
504 [label="avg_training_score <= 66.5\ngini = 0.133\nsamples = 14\nvalue = [13, 1]"] ;
502 -> 504 ;
505 [label="gini = 0.0\nsamples = 1\nvalue = [0, 1]"] ;
504 -> 505 ;
506 [label="gini = 0.0\nsamples = 13\nvalue = [13, 0]"] ;
504 -> 506 ;
507 [label="gini = 0.0\nsamples = 147\nvalue = [147, 0]"] ;
501 -> 507 ;
508 [label="previous_year_rating <= 2.5\ngini = 0.077\nsamples = 423\nvalue = [406, 17]"] ;
472 -> 508 ;
509 [label="gini = 0.0\nsamples = 54\nvalue = [54, 0]"] ;
508 -> 509 ;
510 [label="length_of_service <= 2.5\ngini = 0.088\nsamples = 369\nvalue = [352, 17]"] ;
508 -> 510 ;
511 [label="education_n <= 1.0\ngini = 0.18\nsamples = 30\nvalue = [27, 3]"] ;
510 -> 511 ;
512 [label="avg_training_score <= 63.5\ngini = 0.266\nsamples = 19\nvalue = [16, 3]"] ;
511 -> 512 ;
513 [label="avg_training_score <= 61.5\ngini = 0.165\nsamples = 11\nvalue = [10, 1]"] ;
512 -> 513 ;
514 [label="previous_year_rating <= 3.5\ngini = 0.375\nsamples = 4\nvalue = [3, 1]"] ;
513 -> 514 ;
515 [label="gini = 0.0\nsamples = 3\nvalue = [3, 0]"] ;
514 -> 515 ;
516 [label="gini = 0.0\nsamples = 1\nvalue = [0, 1]"] ;
514 -> 516 ;
517 [label="gini = 0.0\nsamples = 7\nvalue = [7, 0]"] ;
513 -> 517 ;
518 [label="age <= 33.5\ngini = 0.375\nsamples = 8\nvalue = [6, 2]"] ;
512 -> 518 ;
519 [label="avg_training_score <= 65.0\ngini = 0.245\nsamples = 7\nvalue = [6, 1]"] ;
518 -> 519 ;
520 [label="gini = 0.0\nsamples = 1\nvalue = [0, 1]"] ;
519 -> 520 ;
521 [label="gini = 0.0\nsamples = 6\nvalue = [6, 0]"] ;
519 -> 521 ;
522 [label="gini = 0.0\nsamples = 1\nvalue = [0, 1]"] ;
518 -> 522 ;
523 [label="gini = 0.0\nsamples = 11\nvalue = [11, 0]"] ;
511 -> 523 ;
524 [label="length_of_service <= 4.5\ngini = 0.079\nsamples = 339\nvalue = [325, 14]"] ;
510 -> 524 ;
525 [label="age <= 33.5\ngini = 0.04\nsamples = 98\nvalue = [96, 2]"] ;
524 -> 525 ;
526 [label="avg_training_score <= 66.5\ngini = 0.071\nsamples = 54\nvalue = [52, 2]"] ;
525 -> 526 ;
527 [label="avg_training_score <= 65.5\ngini = 0.111\nsamples = 34\nvalue = [32, 2]"] ;
526 -> 527 ;
528 [label="avg_training_score <= 62.5\ngini = 0.064\nsamples = 30\nvalue = [29, 1]"] ;
527 -> 528 ;
529 [label="previous_year_rating <= 3.5\ngini = 0.117\nsamples = 16\nvalue = [15, 1]"] ;
528 -> 529 ;
530 [label="gini = 0.0\nsamples = 10\nvalue = [10, 0]"] ;
529 -> 530 ;
531 [label="length_of_service <= 3.5\ngini = 0.278\nsamples = 6\nvalue = [5, 1]"] ;
529 -> 531 ;
532 [label="age <= 32.5\ngini = 0.444\nsamples = 3\nvalue = [2, 1]"] ;
531 -> 532 ;
533 [label="gini = 0.5\nsamples = 2\nvalue = [1, 1]"] ;
532 -> 533 ;
534 [label="gini = 0.0\nsamples = 1\nvalue = [1, 0]"] ;
532 -> 534 ;
535 [label="gini = 0.0\nsamples = 3\nvalue = [3, 0]"] ;
531 -> 535 ;
536 [label="gini = 0.0\nsamples = 14\nvalue = [14, 0]"] ;
528 -> 536 ;
537 [label="education_n <= 1.0\ngini = 0.375\nsamples = 4\nvalue = [3, 1]"] ;
527 -> 537 ;
538 [label="age <= 32.5\ngini = 0.5\nsamples = 2\nvalue = [1, 1]"] ;
537 -> 538 ;
539 [label="gini = 0.0\nsamples = 1\nvalue = [1, 0]"] ;
538 -> 539 ;
540 [label="gini = 0.0\nsamples = 1\nvalue = [0, 1]"] ;
538 -> 540 ;
541 [label="gini = 0.0\nsamples = 2\nvalue = [2, 0]"] ;
537 -> 541 ;
542 [label="gini = 0.0\nsamples = 20\nvalue = [20, 0]"] ;
526 -> 542 ;
543 [label="gini = 0.0\nsamples = 44\nvalue = [44, 0]"] ;
525 -> 543 ;
544 [label="previous_year_rating <= 3.5\ngini = 0.095\nsamples = 241\nvalue = [229, 12]"] ;
524 -> 544 ;
545 [label="avg_training_score <= 68.5\ngini = 0.11\nsamples = 171\nvalue = [161, 10]"] ;
544 -> 545 ;
546 [label="avg_training_score <= 66.5\ngini = 0.081\nsamples = 119\nvalue = [114, 5]"] ;
545 -> 546 ;
547 [label="avg_training_score <= 63.5\ngini = 0.116\nsamples = 81\nvalue = [76, 5]"] ;
546 -> 547 ;
548 [label="avg_training_score <= 61.5\ngini = 0.075\nsamples = 51\nvalue = [49, 2]"] ;
547 -> 548 ;
549 [label="length_of_service <= 7.5\ngini = 0.159\nsamples = 23\nvalue = [21, 2]"] ;
548 -> 549 ;
550 [label="age <= 31.5\ngini = 0.278\nsamples = 12\nvalue = [10, 2]"] ;
549 -> 550 ;
551 [label="length_of_service <= 6.0\ngini = 0.5\nsamples = 2\nvalue = [1, 1]"] ;
550 -> 551 ;
552 [label="gini = 0.0\nsamples = 1\nvalue = [1, 0]"] ;
551 -> 552 ;
553 [label="gini = 0.0\nsamples = 1\nvalue = [0, 1]"] ;
551 -> 553 ;
554 [label="length_of_service <= 5.5\ngini = 0.18\nsamples = 10\nvalue = [9, 1]"] ;
550 -> 554 ;
555 [label="age <= 33.5\ngini = 0.32\nsamples = 5\nvalue = [4, 1]"] ;
554 -> 555 ;
556 [label="gini = 0.0\nsamples = 2\nvalue = [2, 0]"] ;
555 -> 556 ;
557 [label="age <= 34.5\ngini = 0.444\nsamples = 3\nvalue = [2, 1]"] ;
555 -> 557 ;
558 [label="gini = 0.0\nsamples = 1\nvalue = [0, 1]"] ;
557 -> 558 ;
559 [label="gini = 0.0\nsamples = 2\nvalue = [2, 0]"] ;
557 -> 559 ;
560 [label="gini = 0.0\nsamples = 5\nvalue = [5, 0]"] ;
554 -> 560 ;
561 [label="gini = 0.0\nsamples = 11\nvalue = [11, 0]"] ;
549 -> 561 ;
562 [label="gini = 0.0\nsamples = 28\nvalue = [28, 0]"] ;
548 -> 562 ;
563 [label="length_of_service <= 9.5\ngini = 0.18\nsamples = 30\nvalue = [27, 3]"] ;
547 -> 563 ;
564 [label="length_of_service <= 6.5\ngini = 0.133\nsamples = 28\nvalue = [26, 2]"] ;
563 -> 564 ;
565 [label="age <= 31.5\ngini = 0.26\nsamples = 13\nvalue = [11, 2]"] ;
564 -> 565 ;
566 [label="gini = 0.5\nsamples = 2\nvalue = [1, 1]"] ;
565 -> 566 ;
567 [label="length_of_service <= 5.5\ngini = 0.165\nsamples = 11\nvalue = [10, 1]"] ;
565 -> 567 ;
568 [label="education_n <= 1.0\ngini = 0.278\nsamples = 6\nvalue = [5, 1]"] ;
567 -> 568 ;
569 [label="gini = 0.0\nsamples = 3\nvalue = [3, 0]"] ;
568 -> 569 ;
570 [label="age <= 33.5\ngini = 0.444\nsamples = 3\nvalue = [2, 1]"] ;
568 -> 570 ;
571 [label="gini = 0.0\nsamples = 1\nvalue = [1, 0]"] ;
570 -> 571 ;
572 [label="age <= 35.0\ngini = 0.5\nsamples = 2\nvalue = [1, 1]"] ;
570 -> 572 ;
573 [label="gini = 0.0\nsamples = 1\nvalue = [0, 1]"] ;
572 -> 573 ;
574 [label="gini = 0.0\nsamples = 1\nvalue = [1, 0]"] ;
572 -> 574 ;
575 [label="gini = 0.0\nsamples = 5\nvalue = [5, 0]"] ;
567 -> 575 ;
576 [label="gini = 0.0\nsamples = 15\nvalue = [15, 0]"] ;
564 -> 576 ;
577 [label="age <= 34.5\ngini = 0.5\nsamples = 2\nvalue = [1, 1]"] ;
563 -> 577 ;
578 [label="gini = 0.0\nsamples = 1\nvalue = [1, 0]"] ;
577 -> 578 ;
579 [label="gini = 0.0\nsamples = 1\nvalue = [0, 1]"] ;
577 -> 579 ;
580 [label="gini = 0.0\nsamples = 38\nvalue = [38, 0]"] ;
546 -> 580 ;
581 [label="age <= 31.5\ngini = 0.174\nsamples = 52\nvalue = [47, 5]"] ;
545 -> 581 ;
582 [label="gini = 0.0\nsamples = 10\nvalue = [10, 0]"] ;
581 -> 582 ;
583 [label="length_of_service <= 6.5\ngini = 0.21\nsamples = 42\nvalue = [37, 5]"] ;
581 -> 583 ;
584 [label="avg_training_score <= 69.5\ngini = 0.355\nsamples = 13\nvalue = [10, 3]"] ;
583 -> 584 ;
585 [label="gini = 0.0\nsamples = 2\nvalue = [2, 0]"] ;
584 -> 585 ;
586 [label="education_n <= 1.0\ngini = 0.397\nsamples = 11\nvalue = [8, 3]"] ;
584 -> 586 ;
587 [label="age <= 33.0\ngini = 0.32\nsamples = 5\nvalue = [4, 1]"] ;
586 -> 587 ;
588 [label="gini = 0.444\nsamples = 3\nvalue = [2, 1]"] ;
587 -> 588 ;
589 [label="gini = 0.0\nsamples = 2\nvalue = [2, 0]"] ;
587 -> 589 ;
590 [label="age <= 33.0\ngini = 0.444\nsamples = 6\nvalue = [4, 2]"] ;
586 -> 590 ;
591 [label="gini = 0.0\nsamples = 2\nvalue = [2, 0]"] ;
590 -> 591 ;
592 [label="length_of_service <= 5.5\ngini = 0.5\nsamples = 4\nvalue = [2, 2]"] ;
590 -> 592 ;
593 [label="gini = 0.0\nsamples = 2\nvalue = [2, 0]"] ;
592 -> 593 ;
594 [label="gini = 0.0\nsamples = 2\nvalue = [0, 2]"] ;
592 -> 594 ;
595 [label="length_of_service <= 8.5\ngini = 0.128\nsamples = 29\nvalue = [27, 2]"] ;
583 -> 595 ;
596 [label="gini = 0.0\nsamples = 18\nvalue = [18, 0]"] ;
595 -> 596 ;
597 [label="age <= 33.5\ngini = 0.298\nsamples = 11\nvalue = [9, 2]"] ;
595 -> 597 ;
598 [label="education_n <= 1.0\ngini = 0.48\nsamples = 5\nvalue = [3, 2]"] ;
597 -> 598 ;
599 [label="avg_training_score <= 69.5\ngini = 0.5\nsamples = 4\nvalue = [2, 2]"] ;
598 -> 599 ;
600 [label="length_of_service <= 9.5\ngini = 0.444\nsamples = 3\nvalue = [1, 2]"] ;
599 -> 600 ;
601 [label="gini = 0.0\nsamples = 1\nvalue = [0, 1]"] ;
600 -> 601 ;
602 [label="gini = 0.5\nsamples = 2\nvalue = [1, 1]"] ;
600 -> 602 ;
603 [label="gini = 0.0\nsamples = 1\nvalue = [1, 0]"] ;
599 -> 603 ;
604 [label="gini = 0.0\nsamples = 1\nvalue = [1, 0]"] ;
598 -> 604 ;
605 [label="gini = 0.0\nsamples = 6\nvalue = [6, 0]"] ;
597 -> 605 ;
606 [label="avg_training_score <= 63.5\ngini = 0.056\nsamples = 70\nvalue = [68, 2]"] ;
544 -> 606 ;
607 [label="avg_training_score <= 62.5\ngini = 0.124\nsamples = 30\nvalue = [28, 2]"] ;
606 -> 607 ;
608 [label="gini = 0.0\nsamples = 18\nvalue = [18, 0]"] ;
607 -> 608 ;
609 [label="length_of_service <= 6.5\ngini = 0.278\nsamples = 12\nvalue = [10, 2]"] ;
607 -> 609 ;
610 [label="gini = 0.0\nsamples = 4\nvalue = [4, 0]"] ;
609 -> 610 ;
611 [label="age <= 32.5\ngini = 0.375\nsamples = 8\nvalue = [6, 2]"] ;
609 -> 611 ;
612 [label="gini = 0.0\nsamples = 1\nvalue = [0, 1]"] ;
611 -> 612 ;
613 [label="length_of_service <= 7.5\ngini = 0.245\nsamples = 7\nvalue = [6, 1]"] ;
611 -> 613 ;
614 [label="age <= 35.5\ngini = 0.444\nsamples = 3\nvalue = [2, 1]"] ;
613 -> 614 ;
615 [label="gini = 0.0\nsamples = 1\nvalue = [1, 0]"] ;
614 -> 615 ;
616 [label="gini = 0.5\nsamples = 2\nvalue = [1, 1]"] ;
614 -> 616 ;
617 [label="gini = 0.0\nsamples = 4\nvalue = [4, 0]"] ;
613 -> 617 ;
618 [label="gini = 0.0\nsamples = 40\nvalue = [40, 0]"] ;
606 -> 618 ;
619 [label="previous_year_rating <= 2.5\ngini = 0.019\nsamples = 309\nvalue = [306, 3]"] ;
471 -> 619 ;
620 [label="education_n <= 1.0\ngini = 0.108\nsamples = 35\nvalue = [33, 2]"] ;
619 -> 620 ;
621 [label="gini = 0.0\nsamples = 18\nvalue = [18, 0]"] ;
620 -> 621 ;
622 [label="avg_training_score <= 68.0\ngini = 0.208\nsamples = 17\nvalue = [15, 2]"] ;
620 -> 622 ;
623 [label="gini = 0.0\nsamples = 8\nvalue = [8, 0]"] ;
622 -> 623 ;
624 [label="length_of_service <= 6.5\ngini = 0.346\nsamples = 9\nvalue = [7, 2]"] ;
622 -> 624 ;
625 [label="gini = 0.0\nsamples = 3\nvalue = [3, 0]"] ;
624 -> 625 ;
626 [label="length_of_service <= 7.5\ngini = 0.444\nsamples = 6\nvalue = [4, 2]"] ;
624 -> 626 ;
627 [label="gini = 0.0\nsamples = 1\nvalue = [0, 1]"] ;
626 -> 627 ;
628 [label="age <= 40.5\ngini = 0.32\nsamples = 5\nvalue = [4, 1]"] ;
626 -> 628 ;
629 [label="gini = 0.0\nsamples = 3\nvalue = [3, 0]"] ;
628 -> 629 ;
630 [label="length_of_service <= 10.0\ngini = 0.5\nsamples = 2\nvalue = [1, 1]"] ;
628 -> 630 ;
631 [label="gini = 0.0\nsamples = 1\nvalue = [1, 0]"] ;
630 -> 631 ;
632 [label="gini = 0.0\nsamples = 1\nvalue = [0, 1]"] ;
630 -> 632 ;
633 [label="avg_training_score <= 69.5\ngini = 0.007\nsamples = 274\nvalue = [273, 1]"] ;
619 -> 633 ;
634 [label="gini = 0.0\nsamples = 229\nvalue = [229, 0]"] ;
633 -> 634 ;
635 [label="age <= 42.5\ngini = 0.043\nsamples = 45\nvalue = [44, 1]"] ;
633 -> 635 ;
636 [label="gini = 0.0\nsamples = 30\nvalue = [30, 0]"] ;
635 -> 636 ;
637 [label="age <= 43.5\ngini = 0.124\nsamples = 15\nvalue = [14, 1]"] ;
635 -> 637 ;
638 [label="previous_year_rating <= 3.5\ngini = 0.5\nsamples = 2\nvalue = [1, 1]"] ;
637 -> 638 ;
639 [label="gini = 0.0\nsamples = 1\nvalue = [1, 0]"] ;
638 -> 639 ;
640 [label="gini = 0.0\nsamples = 1\nvalue = [0, 1]"] ;
638 -> 640 ;
641 [label="gini = 0.0\nsamples = 13\nvalue = [13, 0]"] ;
637 -> 641 ;
642 [label="age <= 43.5\ngini = 0.107\nsamples = 106\nvalue = [100, 6]"] ;
470 -> 642 ;
643 [label="avg_training_score <= 70.5\ngini = 0.308\nsamples = 21\nvalue = [17, 4]"] ;
642 -> 643 ;
644 [label="avg_training_score <= 64.5\ngini = 0.198\nsamples = 18\nvalue = [16, 2]"] ;
643 -> 644 ;
645 [label="gini = 0.0\nsamples = 9\nvalue = [9, 0]"] ;
644 -> 645 ;
646 [label="avg_training_score <= 68.5\ngini = 0.346\nsamples = 9\nvalue = [7, 2]"] ;
644 -> 646 ;
647 [label="avg_training_score <= 67.5\ngini = 0.48\nsamples = 5\nvalue = [3, 2]"] ;
646 -> 647 ;
648 [label="age <= 42.5\ngini = 0.375\nsamples = 4\nvalue = [3, 1]"] ;
647 -> 648 ;
649 [label="gini = 0.0\nsamples = 2\nvalue = [2, 0]"] ;
648 -> 649 ;
650 [label="length_of_service <= 14.5\ngini = 0.5\nsamples = 2\nvalue = [1, 1]"] ;
648 -> 650 ;
651 [label="gini = 0.0\nsamples = 1\nvalue = [0, 1]"] ;
650 -> 651 ;
652 [label="gini = 0.0\nsamples = 1\nvalue = [1, 0]"] ;
650 -> 652 ;
653 [label="gini = 0.0\nsamples = 1\nvalue = [0, 1]"] ;
647 -> 653 ;
654 [label="gini = 0.0\nsamples = 4\nvalue = [4, 0]"] ;
646 -> 654 ;
655 [label="education_n <= 1.0\ngini = 0.444\nsamples = 3\nvalue = [1, 2]"] ;
643 -> 655 ;
656 [label="gini = 0.0\nsamples = 1\nvalue = [0, 1]"] ;
655 -> 656 ;
657 [label="length_of_service <= 13.5\ngini = 0.5\nsamples = 2\nvalue = [1, 1]"] ;
655 -> 657 ;
658 [label="gini = 0.0\nsamples = 1\nvalue = [1, 0]"] ;
657 -> 658 ;
659 [label="gini = 0.0\nsamples = 1\nvalue = [0, 1]"] ;
657 -> 659 ;
660 [label="avg_training_score <= 68.5\ngini = 0.046\nsamples = 85\nvalue = [83, 2]"] ;
642 -> 660 ;
661 [label="gini = 0.0\nsamples = 57\nvalue = [57, 0]"] ;
660 -> 661 ;
662 [label="avg_training_score <= 69.5\ngini = 0.133\nsamples = 28\nvalue = [26, 2]"] ;
660 -> 662 ;
663 [label="age <= 47.5\ngini = 0.278\nsamples = 12\nvalue = [10, 2]"] ;
662 -> 663 ;
664 [label="gini = 0.0\nsamples = 5\nvalue = [5, 0]"] ;
663 -> 664 ;
665 [label="age <= 49.5\ngini = 0.408\nsamples = 7\nvalue = [5, 2]"] ;
663 -> 665 ;
666 [label="length_of_service <= 18.5\ngini = 0.444\nsamples = 3\nvalue = [1, 2]"] ;
665 -> 666 ;
667 [label="gini = 0.0\nsamples = 2\nvalue = [0, 2]"] ;
666 -> 667 ;
668 [label="gini = 0.0\nsamples = 1\nvalue = [1, 0]"] ;
666 -> 668 ;
669 [label="gini = 0.0\nsamples = 4\nvalue = [4, 0]"] ;
665 -> 669 ;
670 [label="gini = 0.0\nsamples = 16\nvalue = [16, 0]"] ;
662 -> 670 ;
671 [label="length_of_service <= 4.5\ngini = 0.231\nsamples = 15\nvalue = [13, 2]"] ;
469 -> 671 ;
672 [label="gini = 0.0\nsamples = 1\nvalue = [0, 1]"] ;
671 -> 672 ;
673 [label="length_of_service <= 18.5\ngini = 0.133\nsamples = 14\nvalue = [13, 1]"] ;
671 -> 673 ;
674 [label="gini = 0.0\nsamples = 12\nvalue = [12, 0]"] ;
673 -> 674 ;
675 [label="length_of_service <= 24.0\ngini = 0.5\nsamples = 2\nvalue = [1, 1]"] ;
673 -> 675 ;
676 [label="gini = 0.0\nsamples = 1\nvalue = [0, 1]"] ;
675 -> 676 ;
677 [label="gini = 0.0\nsamples = 1\nvalue = [1, 0]"] ;
675 -> 677 ;
678 [label="age <= 23.5\ngini = 0.1\nsamples = 1686\nvalue = [1597, 89]"] ;
464 -> 678 ;
679 [label="education_n <= 0.5\ngini = 0.278\nsamples = 24\nvalue = [20, 4]"] ;
678 -> 679 ;
680 [label="age <= 21.5\ngini = 0.408\nsamples = 14\nvalue = [10, 4]"] ;
679 -> 680 ;
681 [label="gini = 0.0\nsamples = 3\nvalue = [3, 0]"] ;
680 -> 681 ;
682 [label="age <= 22.5\ngini = 0.463\nsamples = 11\nvalue = [7, 4]"] ;
680 -> 682 ;
683 [label="avg_training_score <= 63.5\ngini = 0.444\nsamples = 3\nvalue = [1, 2]"] ;
682 -> 683 ;
684 [label="gini = 0.0\nsamples = 2\nvalue = [0, 2]"] ;
683 -> 684 ;
685 [label="gini = 0.0\nsamples = 1\nvalue = [1, 0]"] ;
683 -> 685 ;
686 [label="avg_training_score <= 64.0\ngini = 0.375\nsamples = 8\nvalue = [6, 2]"] ;
682 -> 686 ;
687 [label="gini = 0.0\nsamples = 4\nvalue = [4, 0]"] ;
686 -> 687 ;
688 [label="previous_year_rating <= 3.5\ngini = 0.5\nsamples = 4\nvalue = [2, 2]"] ;
686 -> 688 ;
689 [label="avg_training_score <= 66.0\ngini = 0.444\nsamples = 3\nvalue = [2, 1]"] ;
688 -> 689 ;
690 [label="gini = 0.0\nsamples = 1\nvalue = [1, 0]"] ;
689 -> 690 ;
691 [label="avg_training_score <= 67.5\ngini = 0.5\nsamples = 2\nvalue = [1, 1]"] ;
689 -> 691 ;
692 [label="gini = 0.0\nsamples = 1\nvalue = [0, 1]"] ;
691 -> 692 ;
693 [label="gini = 0.0\nsamples = 1\nvalue = [1, 0]"] ;
691 -> 693 ;
694 [label="gini = 0.0\nsamples = 1\nvalue = [0, 1]"] ;
688 -> 694 ;
695 [label="gini = 0.0\nsamples = 10\nvalue = [10, 0]"] ;
679 -> 695 ;
696 [label="avg_training_score <= 62.5\ngini = 0.097\nsamples = 1662\nvalue = [1577, 85]"] ;
678 -> 696 ;
697 [label="length_of_service <= 4.5\ngini = 0.063\nsamples = 553\nvalue = [535, 18]"] ;
696 -> 697 ;
698 [label="length_of_service <= 1.5\ngini = 0.04\nsamples = 245\nvalue = [240, 5]"] ;
697 -> 698 ;
699 [label="age <= 28.5\ngini = 0.089\nsamples = 64\nvalue = [61, 3]"] ;
698 -> 699 ;
700 [label="age <= 26.5\ngini = 0.136\nsamples = 41\nvalue = [38, 3]"] ;
699 -> 700 ;
701 [label="gini = 0.0\nsamples = 18\nvalue = [18, 0]"] ;
700 -> 701 ;
702 [label="education_n <= 0.5\ngini = 0.227\nsamples = 23\nvalue = [20, 3]"] ;
700 -> 702 ;
703 [label="age <= 27.5\ngini = 0.278\nsamples = 18\nvalue = [15, 3]"] ;
702 -> 703 ;
704 [label="avg_training_score <= 61.5\ngini = 0.408\nsamples = 7\nvalue = [5, 2]"] ;
703 -> 704 ;
705 [label="gini = 0.32\nsamples = 5\nvalue = [4, 1]"] ;
704 -> 705 ;
706 [label="gini = 0.5\nsamples = 2\nvalue = [1, 1]"] ;
704 -> 706 ;
707 [label="avg_training_score <= 61.5\ngini = 0.165\nsamples = 11\nvalue = [10, 1]"] ;
703 -> 707 ;
708 [label="gini = 0.278\nsamples = 6\nvalue = [5, 1]"] ;
707 -> 708 ;
709 [label="gini = 0.0\nsamples = 5\nvalue = [5, 0]"] ;
707 -> 709 ;
710 [label="gini = 0.0\nsamples = 5\nvalue = [5, 0]"] ;
702 -> 710 ;
711 [label="gini = 0.0\nsamples = 23\nvalue = [23, 0]"] ;
699 -> 711 ;
712 [label="age <= 26.5\ngini = 0.022\nsamples = 181\nvalue = [179, 2]"] ;
698 -> 712 ;
713 [label="age <= 25.5\ngini = 0.069\nsamples = 28\nvalue = [27, 1]"] ;
712 -> 713 ;
714 [label="gini = 0.0\nsamples = 18\nvalue = [18, 0]"] ;
713 -> 714 ;
715 [label="avg_training_score <= 61.5\ngini = 0.18\nsamples = 10\nvalue = [9, 1]"] ;
713 -> 715 ;
716 [label="previous_year_rating <= 2.5\ngini = 0.444\nsamples = 3\nvalue = [2, 1]"] ;
715 -> 716 ;
717 [label="gini = 0.0\nsamples = 1\nvalue = [1, 0]"] ;
716 -> 717 ;
718 [label="education_n <= 0.5\ngini = 0.5\nsamples = 2\nvalue = [1, 1]"] ;
716 -> 718 ;
719 [label="gini = 0.0\nsamples = 1\nvalue = [0, 1]"] ;
718 -> 719 ;
720 [label="gini = 0.0\nsamples = 1\nvalue = [1, 0]"] ;
718 -> 720 ;
721 [label="gini = 0.0\nsamples = 7\nvalue = [7, 0]"] ;
715 -> 721 ;
722 [label="length_of_service <= 3.5\ngini = 0.013\nsamples = 153\nvalue = [152, 1]"] ;
712 -> 722 ;
723 [label="gini = 0.0\nsamples = 91\nvalue = [91, 0]"] ;
722 -> 723 ;
724 [label="avg_training_score <= 61.5\ngini = 0.032\nsamples = 62\nvalue = [61, 1]"] ;
722 -> 724 ;
725 [label="gini = 0.0\nsamples = 40\nvalue = [40, 0]"] ;
724 -> 725 ;
726 [label="age <= 31.5\ngini = 0.087\nsamples = 22\nvalue = [21, 1]"] ;
724 -> 726 ;
727 [label="age <= 30.5\ngini = 0.153\nsamples = 12\nvalue = [11, 1]"] ;
726 -> 727 ;
728 [label="gini = 0.0\nsamples = 8\nvalue = [8, 0]"] ;
727 -> 728 ;
729 [label="previous_year_rating <= 2.5\ngini = 0.375\nsamples = 4\nvalue = [3, 1]"] ;
727 -> 729 ;
730 [label="gini = 0.0\nsamples = 1\nvalue = [1, 0]"] ;
729 -> 730 ;
731 [label="previous_year_rating <= 3.5\ngini = 0.444\nsamples = 3\nvalue = [2, 1]"] ;
729 -> 731 ;
732 [label="gini = 0.5\nsamples = 2\nvalue = [1, 1]"] ;
731 -> 732 ;
733 [label="gini = 0.0\nsamples = 1\nvalue = [1, 0]"] ;
731 -> 733 ;
734 [label="gini = 0.0\nsamples = 10\nvalue = [10, 0]"] ;
726 -> 734 ;
735 [label="age <= 42.5\ngini = 0.081\nsamples = 308\nvalue = [295, 13]"] ;
697 -> 735 ;
736 [label="length_of_service <= 10.5\ngini = 0.099\nsamples = 229\nvalue = [217, 12]"] ;
735 -> 736 ;
737 [label="length_of_service <= 6.5\ngini = 0.084\nsamples = 204\nvalue = [195, 9]"] ;
736 -> 737 ;
738 [label="previous_year_rating <= 2.5\ngini = 0.134\nsamples = 83\nvalue = [77, 6]"] ;
737 -> 738 ;
739 [label="length_of_service <= 5.5\ngini = 0.32\nsamples = 5\nvalue = [4, 1]"] ;
738 -> 739 ;
740 [label="age <= 29.5\ngini = 0.5\nsamples = 2\nvalue = [1, 1]"] ;
739 -> 740 ;
741 [label="gini = 0.0\nsamples = 1\nvalue = [1, 0]"] ;
740 -> 741 ;
742 [label="gini = 0.0\nsamples = 1\nvalue = [0, 1]"] ;
740 -> 742 ;
743 [label="gini = 0.0\nsamples = 3\nvalue = [3, 0]"] ;
739 -> 743 ;
744 [label="age <= 31.5\ngini = 0.12\nsamples = 78\nvalue = [73, 5]"] ;
738 -> 744 ;
745 [label="gini = 0.0\nsamples = 23\nvalue = [23, 0]"] ;
744 -> 745 ;
746 [label="age <= 35.5\ngini = 0.165\nsamples = 55\nvalue = [50, 5]"] ;
744 -> 746 ;
747 [label="education_n <= 1.0\ngini = 0.213\nsamples = 33\nvalue = [29, 4]"] ;
746 -> 747 ;
748 [label="age <= 33.5\ngini = 0.142\nsamples = 26\nvalue = [24, 2]"] ;
747 -> 748 ;
749 [label="age <= 32.5\ngini = 0.245\nsamples = 14\nvalue = [12, 2]"] ;
748 -> 749 ;
750 [label="avg_training_score <= 61.5\ngini = 0.18\nsamples = 10\nvalue = [9, 1]"] ;
749 -> 750 ;
751 [label="gini = 0.0\nsamples = 8\nvalue = [8, 0]"] ;
750 -> 751 ;
752 [label="previous_year_rating <= 3.5\ngini = 0.5\nsamples = 2\nvalue = [1, 1]"] ;
750 -> 752 ;
753 [label="gini = 0.0\nsamples = 1\nvalue = [0, 1]"] ;
752 -> 753 ;
754 [label="gini = 0.0\nsamples = 1\nvalue = [1, 0]"] ;
752 -> 754 ;
755 [label="avg_training_score <= 61.5\ngini = 0.375\nsamples = 4\nvalue = [3, 1]"] ;
749 -> 755 ;
756 [label="length_of_service <= 5.5\ngini = 0.5\nsamples = 2\nvalue = [1, 1]"] ;
755 -> 756 ;
757 [label="gini = 0.0\nsamples = 1\nvalue = [1, 0]"] ;
756 -> 757 ;
758 [label="gini = 0.0\nsamples = 1\nvalue = [0, 1]"] ;
756 -> 758 ;
759 [label="gini = 0.0\nsamples = 2\nvalue = [2, 0]"] ;
755 -> 759 ;
760 [label="gini = 0.0\nsamples = 12\nvalue = [12, 0]"] ;
748 -> 760 ;
761 [label="age <= 34.5\ngini = 0.408\nsamples = 7\nvalue = [5, 2]"] ;
747 -> 761 ;
762 [label="gini = 0.0\nsamples = 4\nvalue = [4, 0]"] ;
761 -> 762 ;
763 [label="previous_year_rating <= 3.5\ngini = 0.444\nsamples = 3\nvalue = [1, 2]"] ;
761 -> 763 ;
764 [label="gini = 0.5\nsamples = 2\nvalue = [1, 1]"] ;
763 -> 764 ;
765 [label="gini = 0.0\nsamples = 1\nvalue = [0, 1]"] ;
763 -> 765 ;
766 [label="length_of_service <= 5.5\ngini = 0.087\nsamples = 22\nvalue = [21, 1]"] ;
746 -> 766 ;
767 [label="age <= 39.5\ngini = 0.18\nsamples = 10\nvalue = [9, 1]"] ;
766 -> 767 ;
768 [label="gini = 0.0\nsamples = 6\nvalue = [6, 0]"] ;
767 -> 768 ;
769 [label="avg_training_score <= 61.5\ngini = 0.375\nsamples = 4\nvalue = [3, 1]"] ;
767 -> 769 ;
770 [label="gini = 0.0\nsamples = 2\nvalue = [2, 0]"] ;
769 -> 770 ;
771 [label="previous_year_rating <= 3.5\ngini = 0.5\nsamples = 2\nvalue = [1, 1]"] ;
769 -> 771 ;
772 [label="gini = 0.0\nsamples = 1\nvalue = [0, 1]"] ;
771 -> 772 ;
773 [label="gini = 0.0\nsamples = 1\nvalue = [1, 0]"] ;
771 -> 773 ;
774 [label="gini = 0.0\nsamples = 12\nvalue = [12, 0]"] ;
766 -> 774 ;
775 [label="length_of_service <= 7.5\ngini = 0.048\nsamples = 121\nvalue = [118, 3]"] ;
737 -> 775 ;
776 [label="gini = 0.0\nsamples = 55\nvalue = [55, 0]"] ;
775 -> 776 ;
777 [label="length_of_service <= 8.5\ngini = 0.087\nsamples = 66\nvalue = [63, 3]"] ;
775 -> 777 ;
778 [label="age <= 34.5\ngini = 0.188\nsamples = 19\nvalue = [17, 2]"] ;
777 -> 778 ;
779 [label="age <= 33.5\ngini = 0.444\nsamples = 3\nvalue = [2, 1]"] ;
778 -> 779 ;
780 [label="gini = 0.0\nsamples = 1\nvalue = [1, 0]"] ;
779 -> 780 ;
781 [label="gini = 0.5\nsamples = 2\nvalue = [1, 1]"] ;
779 -> 781 ;
782 [label="age <= 38.5\ngini = 0.117\nsamples = 16\nvalue = [15, 1]"] ;
778 -> 782 ;
783 [label="gini = 0.0\nsamples = 10\nvalue = [10, 0]"] ;
782 -> 783 ;
784 [label="avg_training_score <= 61.5\ngini = 0.278\nsamples = 6\nvalue = [5, 1]"] ;
782 -> 784 ;
785 [label="age <= 40.0\ngini = 0.444\nsamples = 3\nvalue = [2, 1]"] ;
784 -> 785 ;
786 [label="gini = 0.0\nsamples = 1\nvalue = [0, 1]"] ;
785 -> 786 ;
787 [label="gini = 0.0\nsamples = 2\nvalue = [2, 0]"] ;
785 -> 787 ;
788 [label="gini = 0.0\nsamples = 3\nvalue = [3, 0]"] ;
784 -> 788 ;
789 [label="age <= 36.5\ngini = 0.042\nsamples = 47\nvalue = [46, 1]"] ;
777 -> 789 ;
790 [label="gini = 0.0\nsamples = 24\nvalue = [24, 0]"] ;
789 -> 790 ;
791 [label="age <= 37.5\ngini = 0.083\nsamples = 23\nvalue = [22, 1]"] ;
789 -> 791 ;
792 [label="education_n <= 1.0\ngini = 0.278\nsamples = 6\nvalue = [5, 1]"] ;
791 -> 792 ;
793 [label="previous_year_rating <= 3.5\ngini = 0.444\nsamples = 3\nvalue = [2, 1]"] ;
792 -> 793 ;
794 [label="gini = 0.0\nsamples = 1\nvalue = [0, 1]"] ;
793 -> 794 ;
795 [label="gini = 0.0\nsamples = 2\nvalue = [2, 0]"] ;
793 -> 795 ;
796 [label="gini = 0.0\nsamples = 3\nvalue = [3, 0]"] ;
792 -> 796 ;
797 [label="gini = 0.0\nsamples = 17\nvalue = [17, 0]"] ;
791 -> 797 ;
798 [label="age <= 39.5\ngini = 0.211\nsamples = 25\nvalue = [22, 3]"] ;
736 -> 798 ;
799 [label="age <= 38.0\ngini = 0.444\nsamples = 6\nvalue = [4, 2]"] ;
798 -> 799 ;
800 [label="gini = 0.0\nsamples = 2\nvalue = [2, 0]"] ;
799 -> 800 ;
801 [label="previous_year_rating <= 2.5\ngini = 0.5\nsamples = 4\nvalue = [2, 2]"] ;
799 -> 801 ;
802 [label="gini = 0.0\nsamples = 1\nvalue = [1, 0]"] ;
801 -> 802 ;
803 [label="length_of_service <= 11.5\ngini = 0.444\nsamples = 3\nvalue = [1, 2]"] ;
801 -> 803 ;
804 [label="gini = 0.0\nsamples = 2\nvalue = [0, 2]"] ;
803 -> 804 ;
805 [label="gini = 0.0\nsamples = 1\nvalue = [1, 0]"] ;
803 -> 805 ;
806 [label="age <= 41.5\ngini = 0.1\nsamples = 19\nvalue = [18, 1]"] ;
798 -> 806 ;
807 [label="gini = 0.0\nsamples = 11\nvalue = [11, 0]"] ;
806 -> 807 ;
808 [label="education_n <= 1.0\ngini = 0.219\nsamples = 8\nvalue = [7, 1]"] ;
806 -> 808 ;
809 [label="length_of_service <= 12.5\ngini = 0.444\nsamples = 3\nvalue = [2, 1]"] ;
808 -> 809 ;
810 [label="gini = 0.0\nsamples = 1\nvalue = [1, 0]"] ;
809 -> 810 ;
811 [label="length_of_service <= 13.5\ngini = 0.5\nsamples = 2\nvalue = [1, 1]"] ;
809 -> 811 ;
812 [label="gini = 0.0\nsamples = 1\nvalue = [0, 1]"] ;
811 -> 812 ;
813 [label="gini = 0.0\nsamples = 1\nvalue = [1, 0]"] ;
811 -> 813 ;
814 [label="gini = 0.0\nsamples = 5\nvalue = [5, 0]"] ;
808 -> 814 ;
815 [label="previous_year_rating <= 3.5\ngini = 0.025\nsamples = 79\nvalue = [78, 1]"] ;
735 -> 815 ;
816 [label="gini = 0.0\nsamples = 64\nvalue = [64, 0]"] ;
815 -> 816 ;
817 [label="age <= 53.0\ngini = 0.124\nsamples = 15\nvalue = [14, 1]"] ;
815 -> 817 ;
818 [label="gini = 0.0\nsamples = 8\nvalue = [8, 0]"] ;
817 -> 818 ;
819 [label="age <= 55.0\ngini = 0.245\nsamples = 7\nvalue = [6, 1]"] ;
817 -> 819 ;
820 [label="length_of_service <= 10.5\ngini = 0.5\nsamples = 2\nvalue = [1, 1]"] ;
819 -> 820 ;
821 [label="gini = 0.0\nsamples = 1\nvalue = [1, 0]"] ;
820 -> 821 ;
822 [label="gini = 0.0\nsamples = 1\nvalue = [0, 1]"] ;
820 -> 822 ;
823 [label="gini = 0.0\nsamples = 5\nvalue = [5, 0]"] ;
819 -> 823 ;
824 [label="avg_training_score <= 65.5\ngini = 0.114\nsamples = 1109\nvalue = [1042, 67]"] ;
696 -> 824 ;
825 [label="age <= 55.5\ngini = 0.152\nsamples = 374\nvalue = [343, 31]"] ;
824 -> 825 ;
826 [label="length_of_service <= 1.5\ngini = 0.146\nsamples = 366\nvalue = [337, 29]"] ;
825 -> 826 ;
827 [label="gini = 0.0\nsamples = 27\nvalue = [27, 0]"] ;
826 -> 827 ;
828 [label="length_of_service <= 5.5\ngini = 0.156\nsamples = 339\nvalue = [310, 29]"] ;
826 -> 828 ;
829 [label="previous_year_rating <= 3.5\ngini = 0.199\nsamples = 178\nvalue = [158, 20]"] ;
828 -> 829 ;
830 [label="education_n <= 1.5\ngini = 0.227\nsamples = 115\nvalue = [100, 15]"] ;
829 -> 830 ;
831 [label="avg_training_score <= 64.5\ngini = 0.185\nsamples = 87\nvalue = [78, 9]"] ;
830 -> 831 ;
832 [label="age <= 28.5\ngini = 0.153\nsamples = 72\nvalue = [66, 6]"] ;
831 -> 832 ;
833 [label="gini = 0.0\nsamples = 22\nvalue = [22, 0]"] ;
832 -> 833 ;
834 [label="length_of_service <= 3.5\ngini = 0.211\nsamples = 50\nvalue = [44, 6]"] ;
832 -> 834 ;
835 [label="age <= 38.0\ngini = 0.287\nsamples = 23\nvalue = [19, 4]"] ;
834 -> 835 ;
836 [label="age <= 36.0\ngini = 0.332\nsamples = 19\nvalue = [15, 4]"] ;
835 -> 836 ;
837 [label="avg_training_score <= 63.5\ngini = 0.291\nsamples = 17\nvalue = [14, 3]"] ;
836 -> 837 ;
838 [label="age <= 32.5\ngini = 0.375\nsamples = 12\nvalue = [9, 3]"] ;
837 -> 838 ;
839 [label="age <= 30.5\ngini = 0.444\nsamples = 9\nvalue = [6, 3]"] ;
838 -> 839 ;
840 [label="age <= 29.5\ngini = 0.278\nsamples = 6\nvalue = [5, 1]"] ;
839 -> 840 ;
841 [label="length_of_service <= 2.5\ngini = 0.5\nsamples = 2\nvalue = [1, 1]"] ;
840 -> 841 ;
842 [label="gini = 0.0\nsamples = 1\nvalue = [0, 1]"] ;
841 -> 842 ;
843 [label="gini = 0.0\nsamples = 1\nvalue = [1, 0]"] ;
841 -> 843 ;
844 [label="gini = 0.0\nsamples = 4\nvalue = [4, 0]"] ;
840 -> 844 ;
845 [label="age <= 31.5\ngini = 0.444\nsamples = 3\nvalue = [1, 2]"] ;
839 -> 845 ;
846 [label="gini = 0.5\nsamples = 2\nvalue = [1, 1]"] ;
845 -> 846 ;
847 [label="gini = 0.0\nsamples = 1\nvalue = [0, 1]"] ;
845 -> 847 ;
848 [label="gini = 0.0\nsamples = 3\nvalue = [3, 0]"] ;
838 -> 848 ;
849 [label="gini = 0.0\nsamples = 5\nvalue = [5, 0]"] ;
837 -> 849 ;
850 [label="avg_training_score <= 63.5\ngini = 0.5\nsamples = 2\nvalue = [1, 1]"] ;
836 -> 850 ;
851 [label="gini = 0.0\nsamples = 1\nvalue = [1, 0]"] ;
850 -> 851 ;
852 [label="gini = 0.0\nsamples = 1\nvalue = [0, 1]"] ;
850 -> 852 ;
853 [label="gini = 0.0\nsamples = 4\nvalue = [4, 0]"] ;
835 -> 853 ;
854 [label="length_of_service <= 4.5\ngini = 0.137\nsamples = 27\nvalue = [25, 2]"] ;
834 -> 854 ;
855 [label="gini = 0.0\nsamples = 16\nvalue = [16, 0]"] ;
854 -> 855 ;
856 [label="avg_training_score <= 63.5\ngini = 0.298\nsamples = 11\nvalue = [9, 2]"] ;
854 -> 856 ;
857 [label="gini = 0.0\nsamples = 4\nvalue = [4, 0]"] ;
856 -> 857 ;
858 [label="age <= 35.5\ngini = 0.408\nsamples = 7\nvalue = [5, 2]"] ;
856 -> 858 ;
859 [label="age <= 31.0\ngini = 0.48\nsamples = 5\nvalue = [3, 2]"] ;
858 -> 859 ;
860 [label="gini = 0.5\nsamples = 2\nvalue = [1, 1]"] ;
859 -> 860 ;
861 [label="age <= 33.0\ngini = 0.444\nsamples = 3\nvalue = [2, 1]"] ;
859 -> 861 ;
862 [label="gini = 0.0\nsamples = 1\nvalue = [1, 0]"] ;
861 -> 862 ;
863 [label="gini = 0.5\nsamples = 2\nvalue = [1, 1]"] ;
861 -> 863 ;
864 [label="gini = 0.0\nsamples = 2\nvalue = [2, 0]"] ;
858 -> 864 ;
865 [label="previous_year_rating <= 2.5\ngini = 0.32\nsamples = 15\nvalue = [12, 3]"] ;
831 -> 865 ;
866 [label="age <= 28.0\ngini = 0.444\nsamples = 3\nvalue = [1, 2]"] ;
865 -> 866 ;
867 [label="gini = 0.0\nsamples = 2\nvalue = [0, 2]"] ;
866 -> 867 ;
868 [label="gini = 0.0\nsamples = 1\nvalue = [1, 0]"] ;
866 -> 868 ;
869 [label="age <= 37.0\ngini = 0.153\nsamples = 12\nvalue = [11, 1]"] ;
865 -> 869 ;
870 [label="gini = 0.0\nsamples = 11\nvalue = [11, 0]"] ;
869 -> 870 ;
871 [label="gini = 0.0\nsamples = 1\nvalue = [0, 1]"] ;
869 -> 871 ;
872 [label="previous_year_rating <= 2.5\ngini = 0.337\nsamples = 28\nvalue = [22, 6]"] ;
830 -> 872 ;
873 [label="gini = 0.0\nsamples = 4\nvalue = [4, 0]"] ;
872 -> 873 ;
874 [label="age <= 50.5\ngini = 0.375\nsamples = 24\nvalue = [18, 6]"] ;
872 -> 874 ;
875 [label="age <= 47.5\ngini = 0.397\nsamples = 22\nvalue = [16, 6]"] ;
874 -> 875 ;
876 [label="length_of_service <= 3.5\ngini = 0.363\nsamples = 21\nvalue = [16, 5]"] ;
875 -> 876 ;
877 [label="age <= 40.5\ngini = 0.444\nsamples = 9\nvalue = [6, 3]"] ;
876 -> 877 ;
878 [label="age <= 36.5\ngini = 0.375\nsamples = 8\nvalue = [6, 2]"] ;
877 -> 878 ;
879 [label="age <= 35.5\ngini = 0.48\nsamples = 5\nvalue = [3, 2]"] ;
878 -> 879 ;
880 [label="avg_training_score <= 63.5\ngini = 0.375\nsamples = 4\nvalue = [3, 1]"] ;
879 -> 880 ;
881 [label="age <= 29.5\ngini = 0.5\nsamples = 2\nvalue = [1, 1]"] ;
880 -> 881 ;
882 [label="gini = 0.0\nsamples = 1\nvalue = [1, 0]"] ;
881 -> 882 ;
883 [label="gini = 0.0\nsamples = 1\nvalue = [0, 1]"] ;
881 -> 883 ;
884 [label="gini = 0.0\nsamples = 2\nvalue = [2, 0]"] ;
880 -> 884 ;
885 [label="gini = 0.0\nsamples = 1\nvalue = [0, 1]"] ;
879 -> 885 ;
886 [label="gini = 0.0\nsamples = 3\nvalue = [3, 0]"] ;
878 -> 886 ;
887 [label="gini = 0.0\nsamples = 1\nvalue = [0, 1]"] ;
877 -> 887 ;
888 [label="age <= 40.5\ngini = 0.278\nsamples = 12\nvalue = [10, 2]"] ;
876 -> 888 ;
889 [label="age <= 39.0\ngini = 0.375\nsamples = 8\nvalue = [6, 2]"] ;
888 -> 889 ;
890 [label="age <= 33.5\ngini = 0.245\nsamples = 7\nvalue = [6, 1]"] ;
889 -> 890 ;
891 [label="gini = 0.0\nsamples = 3\nvalue = [3, 0]"] ;
890 -> 891 ;
892 [label="age <= 34.5\ngini = 0.375\nsamples = 4\nvalue = [3, 1]"] ;
890 -> 892 ;
893 [label="gini = 0.5\nsamples = 2\nvalue = [1, 1]"] ;
892 -> 893 ;
894 [label="gini = 0.0\nsamples = 2\nvalue = [2, 0]"] ;
892 -> 894 ;
895 [label="gini = 0.0\nsamples = 1\nvalue = [0, 1]"] ;
889 -> 895 ;
896 [label="gini = 0.0\nsamples = 4\nvalue = [4, 0]"] ;
888 -> 896 ;
897 [label="gini = 0.0\nsamples = 1\nvalue = [0, 1]"] ;
875 -> 897 ;
898 [label="gini = 0.0\nsamples = 2\nvalue = [2, 0]"] ;
874 -> 898 ;
899 [label="age <= 30.5\ngini = 0.146\nsamples = 63\nvalue = [58, 5]"] ;
829 -> 899 ;
900 [label="length_of_service <= 3.5\ngini = 0.278\nsamples = 24\nvalue = [20, 4]"] ;
899 -> 900 ;
901 [label="age <= 24.5\ngini = 0.133\nsamples = 14\nvalue = [13, 1]"] ;
900 -> 901 ;
902 [label="avg_training_score <= 64.0\ngini = 0.444\nsamples = 3\nvalue = [2, 1]"] ;
901 -> 902 ;
903 [label="gini = 0.5\nsamples = 2\nvalue = [1, 1]"] ;
902 -> 903 ;
904 [label="gini = 0.0\nsamples = 1\nvalue = [1, 0]"] ;
902 -> 904 ;
905 [label="gini = 0.0\nsamples = 11\nvalue = [11, 0]"] ;
901 -> 905 ;
906 [label="age <= 26.0\ngini = 0.42\nsamples = 10\nvalue = [7, 3]"] ;
900 -> 906 ;
907 [label="gini = 0.0\nsamples = 2\nvalue = [2, 0]"] ;
906 -> 907 ;
908 [label="age <= 28.0\ngini = 0.469\nsamples = 8\nvalue = [5, 3]"] ;
906 -> 908 ;
909 [label="avg_training_score <= 64.5\ngini = 0.5\nsamples = 2\nvalue = [1, 1]"] ;
908 -> 909 ;
910 [label="gini = 0.0\nsamples = 1\nvalue = [0, 1]"] ;
909 -> 910 ;
911 [label="gini = 0.0\nsamples = 1\nvalue = [1, 0]"] ;
909 -> 911 ;
912 [label="avg_training_score <= 64.5\ngini = 0.444\nsamples = 6\nvalue = [4, 2]"] ;
908 -> 912 ;
913 [label="avg_training_score <= 63.5\ngini = 0.32\nsamples = 5\nvalue = [4, 1]"] ;
912 -> 913 ;
914 [label="gini = 0.5\nsamples = 2\nvalue = [1, 1]"] ;
913 -> 914 ;
915 [label="gini = 0.0\nsamples = 3\nvalue = [3, 0]"] ;
913 -> 915 ;
916 [label="gini = 0.0\nsamples = 1\nvalue = [0, 1]"] ;
912 -> 916 ;
917 [label="age <= 35.5\ngini = 0.05\nsamples = 39\nvalue = [38, 1]"] ;
899 -> 917 ;
918 [label="age <= 34.5\ngini = 0.124\nsamples = 15\nvalue = [14, 1]"] ;
917 -> 918 ;
919 [label="gini = 0.0\nsamples = 13\nvalue = [13, 0]"] ;
918 -> 919 ;
920 [label="avg_training_score <= 64.0\ngini = 0.5\nsamples = 2\nvalue = [1, 1]"] ;
918 -> 920 ;
921 [label="gini = 0.0\nsamples = 1\nvalue = [0, 1]"] ;
920 -> 921 ;
922 [label="gini = 0.0\nsamples = 1\nvalue = [1, 0]"] ;
920 -> 922 ;
923 [label="gini = 0.0\nsamples = 24\nvalue = [24, 0]"] ;
917 -> 923 ;
924 [label="age <= 32.5\ngini = 0.106\nsamples = 161\nvalue = [152, 9]"] ;
828 -> 924 ;
925 [label="avg_training_score <= 64.5\ngini = 0.236\nsamples = 22\nvalue = [19, 3]"] ;
924 -> 925 ;
926 [label="gini = 0.0\nsamples = 14\nvalue = [14, 0]"] ;
925 -> 926 ;
927 [label="age <= 30.5\ngini = 0.469\nsamples = 8\nvalue = [5, 3]"] ;
925 -> 927 ;
928 [label="gini = 0.0\nsamples = 1\nvalue = [0, 1]"] ;
927 -> 928 ;
929 [label="previous_year_rating <= 2.5\ngini = 0.408\nsamples = 7\nvalue = [5, 2]"] ;
927 -> 929 ;
930 [label="gini = 0.0\nsamples = 2\nvalue = [2, 0]"] ;
929 -> 930 ;
931 [label="education_n <= 1.0\ngini = 0.48\nsamples = 5\nvalue = [3, 2]"] ;
929 -> 931 ;
932 [label="previous_year_rating <= 3.5\ngini = 0.444\nsamples = 3\nvalue = [2, 1]"] ;
931 -> 932 ;
933 [label="gini = 0.0\nsamples = 1\nvalue = [1, 0]"] ;
932 -> 933 ;
934 [label="age <= 31.5\ngini = 0.5\nsamples = 2\nvalue = [1, 1]"] ;
932 -> 934 ;
935 [label="gini = 0.0\nsamples = 1\nvalue = [0, 1]"] ;
934 -> 935 ;
936 [label="gini = 0.0\nsamples = 1\nvalue = [1, 0]"] ;
934 -> 936 ;
937 [label="previous_year_rating <= 3.5\ngini = 0.5\nsamples = 2\nvalue = [1, 1]"] ;
931 -> 937 ;
938 [label="gini = 0.0\nsamples = 1\nvalue = [0, 1]"] ;
937 -> 938 ;
939 [label="gini = 0.0\nsamples = 1\nvalue = [1, 0]"] ;
937 -> 939 ;
940 [label="length_of_service <= 14.5\ngini = 0.083\nsamples = 139\nvalue = [133, 6]"] ;
924 -> 940 ;
941 [label="age <= 39.5\ngini = 0.05\nsamples = 116\nvalue = [113, 3]"] ;
940 -> 941 ;
942 [label="avg_training_score <= 64.5\ngini = 0.078\nsamples = 74\nvalue = [71, 3]"] ;
941 -> 942 ;
943 [label="education_n <= 1.0\ngini = 0.105\nsamples = 54\nvalue = [51, 3]"] ;
942 -> 943 ;
944 [label="age <= 34.5\ngini = 0.057\nsamples = 34\nvalue = [33, 1]"] ;
943 -> 944 ;
945 [label="age <= 33.5\ngini = 0.219\nsamples = 8\nvalue = [7, 1]"] ;
944 -> 945 ;
946 [label="gini = 0.0\nsamples = 5\nvalue = [5, 0]"] ;
945 -> 946 ;
947 [label="previous_year_rating <= 2.5\ngini = 0.444\nsamples = 3\nvalue = [2, 1]"] ;
945 -> 947 ;
948 [label="gini = 0.0\nsamples = 1\nvalue = [1, 0]"] ;
947 -> 948 ;
949 [label="gini = 0.5\nsamples = 2\nvalue = [1, 1]"] ;
947 -> 949 ;
950 [label="gini = 0.0\nsamples = 26\nvalue = [26, 0]"] ;
944 -> 950 ;
951 [label="age <= 35.0\ngini = 0.18\nsamples = 20\nvalue = [18, 2]"] ;
943 -> 951 ;
952 [label="gini = 0.0\nsamples = 8\nvalue = [8, 0]"] ;
951 -> 952 ;
953 [label="length_of_service <= 9.5\ngini = 0.278\nsamples = 12\nvalue = [10, 2]"] ;
951 -> 953 ;
954 [label="length_of_service <= 6.5\ngini = 0.346\nsamples = 9\nvalue = [7, 2]"] ;
953 -> 954 ;
955 [label="gini = 0.0\nsamples = 2\nvalue = [2, 0]"] ;
954 -> 955 ;
956 [label="previous_year_rating <= 2.5\ngini = 0.408\nsamples = 7\nvalue = [5, 2]"] ;
954 -> 956 ;
957 [label="gini = 0.0\nsamples = 2\nvalue = [2, 0]"] ;
956 -> 957 ;
958 [label="avg_training_score <= 63.5\ngini = 0.48\nsamples = 5\nvalue = [3, 2]"] ;
956 -> 958 ;
959 [label="gini = 0.0\nsamples = 1\nvalue = [0, 1]"] ;
958 -> 959 ;
960 [label="age <= 38.5\ngini = 0.375\nsamples = 4\nvalue = [3, 1]"] ;
958 -> 960 ;
961 [label="gini = 0.0\nsamples = 3\nvalue = [3, 0]"] ;
960 -> 961 ;
962 [label="gini = 0.0\nsamples = 1\nvalue = [0, 1]"] ;
960 -> 962 ;
963 [label="gini = 0.0\nsamples = 3\nvalue = [3, 0]"] ;
953 -> 963 ;
964 [label="gini = 0.0\nsamples = 20\nvalue = [20, 0]"] ;
942 -> 964 ;
965 [label="gini = 0.0\nsamples = 42\nvalue = [42, 0]"] ;
941 -> 965 ;
966 [label="previous_year_rating <= 3.5\ngini = 0.227\nsamples = 23\nvalue = [20, 3]"] ;
940 -> 966 ;
967 [label="age <= 48.5\ngini = 0.117\nsamples = 16\nvalue = [15, 1]"] ;
966 -> 967 ;
968 [label="gini = 0.0\nsamples = 11\nvalue = [11, 0]"] ;
967 -> 968 ;
969 [label="length_of_service <= 15.5\ngini = 0.32\nsamples = 5\nvalue = [4, 1]"] ;
967 -> 969 ;
970 [label="gini = 0.0\nsamples = 1\nvalue = [0, 1]"] ;
969 -> 970 ;
971 [label="gini = 0.0\nsamples = 4\nvalue = [4, 0]"] ;
969 -> 971 ;
972 [label="education_n <= 1.0\ngini = 0.408\nsamples = 7\nvalue = [5, 2]"] ;
966 -> 972 ;
973 [label="avg_training_score <= 63.5\ngini = 0.48\nsamples = 5\nvalue = [3, 2]"] ;
972 -> 973 ;
974 [label="age <= 50.5\ngini = 0.375\nsamples = 4\nvalue = [3, 1]"] ;
973 -> 974 ;
975 [label="gini = 0.0\nsamples = 2\nvalue = [2, 0]"] ;
974 -> 975 ;
976 [label="length_of_service <= 16.0\ngini = 0.5\nsamples = 2\nvalue = [1, 1]"] ;
974 -> 976 ;
977 [label="gini = 0.0\nsamples = 1\nvalue = [1, 0]"] ;
976 -> 977 ;
978 [label="gini = 0.0\nsamples = 1\nvalue = [0, 1]"] ;
976 -> 978 ;
979 [label="gini = 0.0\nsamples = 1\nvalue = [0, 1]"] ;
973 -> 979 ;
980 [label="gini = 0.0\nsamples = 2\nvalue = [2, 0]"] ;
972 -> 980 ;
981 [label="previous_year_rating <= 3.5\ngini = 0.375\nsamples = 8\nvalue = [6, 2]"] ;
825 -> 981 ;
982 [label="length_of_service <= 9.0\ngini = 0.245\nsamples = 7\nvalue = [6, 1]"] ;
981 -> 982 ;
983 [label="gini = 0.0\nsamples = 4\nvalue = [4, 0]"] ;
982 -> 983 ;
984 [label="age <= 59.5\ngini = 0.444\nsamples = 3\nvalue = [2, 1]"] ;
982 -> 984 ;
985 [label="gini = 0.0\nsamples = 1\nvalue = [0, 1]"] ;
984 -> 985 ;
986 [label="gini = 0.0\nsamples = 2\nvalue = [2, 0]"] ;
984 -> 986 ;
987 [label="gini = 0.0\nsamples = 1\nvalue = [0, 1]"] ;
981 -> 987 ;
988 [label="avg_training_score <= 68.5\ngini = 0.093\nsamples = 735\nvalue = [699, 36]"] ;
824 -> 988 ;
989 [label="length_of_service <= 7.5\ngini = 0.053\nsamples = 333\nvalue = [324, 9]"] ;
988 -> 989 ;
990 [label="avg_training_score <= 66.5\ngini = 0.077\nsamples = 225\nvalue = [216, 9]"] ;
989 -> 990 ;
991 [label="age <= 38.5\ngini = 0.138\nsamples = 67\nvalue = [62, 5]"] ;
990 -> 991 ;
992 [label="age <= 27.5\ngini = 0.1\nsamples = 57\nvalue = [54, 3]"] ;
991 -> 992 ;
993 [label="age <= 25.5\ngini = 0.278\nsamples = 12\nvalue = [10, 2]"] ;
992 -> 993 ;
994 [label="gini = 0.0\nsamples = 3\nvalue = [3, 0]"] ;
993 -> 994 ;
995 [label="length_of_service <= 3.5\ngini = 0.346\nsamples = 9\nvalue = [7, 2]"] ;
993 -> 995 ;
996 [label="length_of_service <= 2.5\ngini = 0.408\nsamples = 7\nvalue = [5, 2]"] ;
995 -> 996 ;
997 [label="length_of_service <= 1.5\ngini = 0.278\nsamples = 6\nvalue = [5, 1]"] ;
996 -> 997 ;
998 [label="age <= 26.5\ngini = 0.444\nsamples = 3\nvalue = [2, 1]"] ;
997 -> 998 ;
999 [label="gini = 0.0\nsamples = 2\nvalue = [2, 0]"] ;
998 -> 999 ;
1000 [label="gini = 0.0\nsamples = 1\nvalue = [0, 1]"] ;
998 -> 1000 ;
1001 [label="gini = 0.0\nsamples = 3\nvalue = [3, 0]"] ;
997 -> 1001 ;
1002 [label="gini = 0.0\nsamples = 1\nvalue = [0, 1]"] ;
996 -> 1002 ;
1003 [label="gini = 0.0\nsamples = 2\nvalue = [2, 0]"] ;
995 -> 1003 ;
1004 [label="length_of_service <= 6.5\ngini = 0.043\nsamples = 45\nvalue = [44, 1]"] ;
992 -> 1004 ;
1005 [label="gini = 0.0\nsamples = 30\nvalue = [30, 0]"] ;
1004 -> 1005 ;
1006 [label="age <= 34.5\ngini = 0.124\nsamples = 15\nvalue = [14, 1]"] ;
1004 -> 1006 ;
1007 [label="age <= 33.5\ngini = 0.245\nsamples = 7\nvalue = [6, 1]"] ;
1006 -> 1007 ;
1008 [label="gini = 0.0\nsamples = 5\nvalue = [5, 0]"] ;
1007 -> 1008 ;
1009 [label="previous_year_rating <= 2.5\ngini = 0.5\nsamples = 2\nvalue = [1, 1]"] ;
1007 -> 1009 ;
1010 [label="gini = 0.0\nsamples = 1\nvalue = [1, 0]"] ;
1009 -> 1010 ;
1011 [label="gini = 0.0\nsamples = 1\nvalue = [0, 1]"] ;
1009 -> 1011 ;
1012 [label="gini = 0.0\nsamples = 8\nvalue = [8, 0]"] ;
1006 -> 1012 ;
1013 [label="age <= 39.5\ngini = 0.32\nsamples = 10\nvalue = [8, 2]"] ;
991 -> 1013 ;
1014 [label="previous_year_rating <= 3.5\ngini = 0.444\nsamples = 3\nvalue = [1, 2]"] ;
1013 -> 1014 ;
1015 [label="gini = 0.5\nsamples = 2\nvalue = [1, 1]"] ;
1014 -> 1015 ;
1016 [label="gini = 0.0\nsamples = 1\nvalue = [0, 1]"] ;
1014 -> 1016 ;
1017 [label="gini = 0.0\nsamples = 7\nvalue = [7, 0]"] ;
1013 -> 1017 ;
1018 [label="age <= 31.5\ngini = 0.049\nsamples = 158\nvalue = [154, 4]"] ;
990 -> 1018 ;
1019 [label="gini = 0.0\nsamples = 69\nvalue = [69, 0]"] ;
1018 -> 1019 ;
1020 [label="length_of_service <= 3.5\ngini = 0.086\nsamples = 89\nvalue = [85, 4]"] ;
1018 -> 1020 ;
1021 [label="age <= 36.5\ngini = 0.198\nsamples = 27\nvalue = [24, 3]"] ;
1020 -> 1021 ;
1022 [label="avg_training_score <= 67.5\ngini = 0.278\nsamples = 18\nvalue = [15, 3]"] ;
1021 -> 1022 ;
1023 [label="gini = 0.0\nsamples = 5\nvalue = [5, 0]"] ;
1022 -> 1023 ;
1024 [label="education_n <= 1.0\ngini = 0.355\nsamples = 13\nvalue = [10, 3]"] ;
1022 -> 1024 ;
1025 [label="previous_year_rating <= 2.5\ngini = 0.42\nsamples = 10\nvalue = [7, 3]"] ;
1024 -> 1025 ;
1026 [label="gini = 0.0\nsamples = 2\nvalue = [2, 0]"] ;
1025 -> 1026 ;
1027 [label="length_of_service <= 1.5\ngini = 0.469\nsamples = 8\nvalue = [5, 3]"] ;
1025 -> 1027 ;
1028 [label="gini = 0.0\nsamples = 1\nvalue = [1, 0]"] ;
1027 -> 1028 ;
1029 [label="length_of_service <= 2.5\ngini = 0.49\nsamples = 7\nvalue = [4, 3]"] ;
1027 -> 1029 ;
1030 [label="gini = 0.0\nsamples = 1\nvalue = [0, 1]"] ;
1029 -> 1030 ;
1031 [label="previous_year_rating <= 3.5\ngini = 0.444\nsamples = 6\nvalue = [4, 2]"] ;
1029 -> 1031 ;
1032 [label="age <= 35.5\ngini = 0.5\nsamples = 2\nvalue = [1, 1]"] ;
1031 -> 1032 ;
1033 [label="gini = 0.0\nsamples = 1\nvalue = [1, 0]"] ;
1032 -> 1033 ;
1034 [label="gini = 0.0\nsamples = 1\nvalue = [0, 1]"] ;
1032 -> 1034 ;
1035 [label="age <= 32.5\ngini = 0.375\nsamples = 4\nvalue = [3, 1]"] ;
1031 -> 1035 ;
1036 [label="gini = 0.5\nsamples = 2\nvalue = [1, 1]"] ;
1035 -> 1036 ;
1037 [label="gini = 0.0\nsamples = 2\nvalue = [2, 0]"] ;
1035 -> 1037 ;
1038 [label="gini = 0.0\nsamples = 3\nvalue = [3, 0]"] ;
1024 -> 1038 ;
1039 [label="gini = 0.0\nsamples = 9\nvalue = [9, 0]"] ;
1021 -> 1039 ;
1040 [label="age <= 32.5\ngini = 0.032\nsamples = 62\nvalue = [61, 1]"] ;
1020 -> 1040 ;
1041 [label="length_of_service <= 5.5\ngini = 0.219\nsamples = 8\nvalue = [7, 1]"] ;
1040 -> 1041 ;
1042 [label="gini = 0.0\nsamples = 4\nvalue = [4, 0]"] ;
1041 -> 1042 ;
1043 [label="education_n <= 1.0\ngini = 0.375\nsamples = 4\nvalue = [3, 1]"] ;
1041 -> 1043 ;
1044 [label="gini = 0.0\nsamples = 2\nvalue = [2, 0]"] ;
1043 -> 1044 ;
1045 [label="length_of_service <= 6.5\ngini = 0.5\nsamples = 2\nvalue = [1, 1]"] ;
1043 -> 1045 ;
1046 [label="gini = 0.0\nsamples = 1\nvalue = [0, 1]"] ;
1045 -> 1046 ;
1047 [label="gini = 0.0\nsamples = 1\nvalue = [1, 0]"] ;
1045 -> 1047 ;
1048 [label="gini = 0.0\nsamples = 54\nvalue = [54, 0]"] ;
1040 -> 1048 ;
1049 [label="gini = 0.0\nsamples = 108\nvalue = [108, 0]"] ;
989 -> 1049 ;
1050 [label="education_n <= 1.5\ngini = 0.125\nsamples = 402\nvalue = [375, 27]"] ;
988 -> 1050 ;
1051 [label="length_of_service <= 1.5\ngini = 0.17\nsamples = 256\nvalue = [232, 24]"] ;
1050 -> 1051 ;
1052 [label="age <= 24.5\ngini = 0.285\nsamples = 29\nvalue = [24, 5]"] ;
1051 -> 1052 ;
1053 [label="avg_training_score <= 70.5\ngini = 0.444\nsamples = 3\nvalue = [2, 1]"] ;
1052 -> 1053 ;
1054 [label="gini = 0.0\nsamples = 2\nvalue = [2, 0]"] ;
1053 -> 1054 ;
1055 [label="gini = 0.0\nsamples = 1\nvalue = [0, 1]"] ;
1053 -> 1055 ;
1056 [label="avg_training_score <= 69.5\ngini = 0.26\nsamples = 26\nvalue = [22, 4]"] ;
1052 -> 1056 ;
1057 [label="age <= 28.5\ngini = 0.375\nsamples = 12\nvalue = [9, 3]"] ;
1056 -> 1057 ;
1058 [label="age <= 26.5\ngini = 0.245\nsamples = 7\nvalue = [6, 1]"] ;
1057 -> 1058 ;
1059 [label="gini = 0.0\nsamples = 2\nvalue = [2, 0]"] ;
1058 -> 1059 ;
1060 [label="age <= 27.5\ngini = 0.32\nsamples = 5\nvalue = [4, 1]"] ;
1058 -> 1060 ;
1061 [label="gini = 0.444\nsamples = 3\nvalue = [2, 1]"] ;
1060 -> 1061 ;
1062 [label="gini = 0.0\nsamples = 2\nvalue = [2, 0]"] ;
1060 -> 1062 ;
1063 [label="age <= 32.0\ngini = 0.48\nsamples = 5\nvalue = [3, 2]"] ;
1057 -> 1063 ;
1064 [label="age <= 30.5\ngini = 0.5\nsamples = 4\nvalue = [2, 2]"] ;
1063 -> 1064 ;
1065 [label="age <= 29.5\ngini = 0.444\nsamples = 3\nvalue = [2, 1]"] ;
1064 -> 1065 ;
1066 [label="gini = 0.5\nsamples = 2\nvalue = [1, 1]"] ;
1065 -> 1066 ;
1067 [label="gini = 0.0\nsamples = 1\nvalue = [1, 0]"] ;
1065 -> 1067 ;
1068 [label="gini = 0.0\nsamples = 1\nvalue = [0, 1]"] ;
1064 -> 1068 ;
1069 [label="gini = 0.0\nsamples = 1\nvalue = [1, 0]"] ;
1063 -> 1069 ;
1070 [label="age <= 25.5\ngini = 0.133\nsamples = 14\nvalue = [13, 1]"] ;
1056 -> 1070 ;
1071 [label="avg_training_score <= 70.5\ngini = 0.375\nsamples = 4\nvalue = [3, 1]"] ;
1070 -> 1071 ;
1072 [label="gini = 0.444\nsamples = 3\nvalue = [2, 1]"] ;
1071 -> 1072 ;
1073 [label="gini = 0.0\nsamples = 1\nvalue = [1, 0]"] ;
1071 -> 1073 ;
1074 [label="gini = 0.0\nsamples = 10\nvalue = [10, 0]"] ;
1070 -> 1074 ;
1075 [label="education_n <= 0.5\ngini = 0.153\nsamples = 227\nvalue = [208, 19]"] ;
1051 -> 1075 ;
1076 [label="avg_training_score <= 70.5\ngini = 0.148\nsamples = 223\nvalue = [205, 18]"] ;
1075 -> 1076 ;
1077 [label="age <= 29.5\ngini = 0.175\nsamples = 155\nvalue = [140, 15]"] ;
1076 -> 1077 ;
1078 [label="previous_year_rating <= 2.5\ngini = 0.054\nsamples = 36\nvalue = [35, 1]"] ;
1077 -> 1078 ;
1079 [label="age <= 26.5\ngini = 0.278\nsamples = 6\nvalue = [5, 1]"] ;
1078 -> 1079 ;
1080 [label="gini = 0.0\nsamples = 1\nvalue = [0, 1]"] ;
1079 -> 1080 ;
1081 [label="gini = 0.0\nsamples = 5\nvalue = [5, 0]"] ;
1079 -> 1081 ;
1082 [label="gini = 0.0\nsamples = 30\nvalue = [30, 0]"] ;
1078 -> 1082 ;
1083 [label="avg_training_score <= 69.5\ngini = 0.208\nsamples = 119\nvalue = [105, 14]"] ;
1077 -> 1083 ;
1084 [label="age <= 36.5\ngini = 0.144\nsamples = 64\nvalue = [59, 5]"] ;
1083 -> 1084 ;
1085 [label="length_of_service <= 3.5\ngini = 0.219\nsamples = 32\nvalue = [28, 4]"] ;
1084 -> 1085 ;
1086 [label="age <= 33.5\ngini = 0.5\nsamples = 2\nvalue = [1, 1]"] ;
1085 -> 1086 ;
1087 [label="gini = 0.0\nsamples = 1\nvalue = [0, 1]"] ;
1086 -> 1087 ;
1088 [label="gini = 0.0\nsamples = 1\nvalue = [1, 0]"] ;
1086 -> 1088 ;
1089 [label="age <= 34.5\ngini = 0.18\nsamples = 30\nvalue = [27, 3]"] ;
1085 -> 1089 ;
1090 [label="length_of_service <= 8.5\ngini = 0.08\nsamples = 24\nvalue = [23, 1]"] ;
1089 -> 1090 ;
1091 [label="gini = 0.0\nsamples = 22\nvalue = [22, 0]"] ;
1090 -> 1091 ;
1092 [label="gini = 0.5\nsamples = 2\nvalue = [1, 1]"] ;
1090 -> 1092 ;
1093 [label="length_of_service <= 8.5\ngini = 0.444\nsamples = 6\nvalue = [4, 2]"] ;
1089 -> 1093 ;
1094 [label="length_of_service <= 6.5\ngini = 0.444\nsamples = 3\nvalue = [1, 2]"] ;
1093 -> 1094 ;
1095 [label="gini = 0.5\nsamples = 2\nvalue = [1, 1]"] ;
1094 -> 1095 ;
1096 [label="gini = 0.0\nsamples = 1\nvalue = [0, 1]"] ;
1094 -> 1096 ;
1097 [label="gini = 0.0\nsamples = 3\nvalue = [3, 0]"] ;
1093 -> 1097 ;
1098 [label="previous_year_rating <= 3.5\ngini = 0.061\nsamples = 32\nvalue = [31, 1]"] ;
1084 -> 1098 ;
1099 [label="gini = 0.0\nsamples = 26\nvalue = [26, 0]"] ;
1098 -> 1099 ;
1100 [label="age <= 40.5\ngini = 0.278\nsamples = 6\nvalue = [5, 1]"] ;
1098 -> 1100 ;
1101 [label="gini = 0.0\nsamples = 3\nvalue = [3, 0]"] ;
1100 -> 1101 ;
1102 [label="length_of_service <= 10.5\ngini = 0.444\nsamples = 3\nvalue = [2, 1]"] ;
1100 -> 1102 ;
1103 [label="gini = 0.0\nsamples = 1\nvalue = [0, 1]"] ;
1102 -> 1103 ;
1104 [label="gini = 0.0\nsamples = 2\nvalue = [2, 0]"] ;
1102 -> 1104 ;
1105 [label="previous_year_rating <= 3.5\ngini = 0.274\nsamples = 55\nvalue = [46, 9]"] ;
1083 -> 1105 ;
1106 [label="age <= 48.5\ngini = 0.331\nsamples = 43\nvalue = [34, 9]"] ;
1105 -> 1106 ;
1107 [label="age <= 46.5\ngini = 0.361\nsamples = 38\nvalue = [29, 9]"] ;
1106 -> 1107 ;
1108 [label="length_of_service <= 11.5\ngini = 0.339\nsamples = 37\nvalue = [29, 8]"] ;
1107 -> 1108 ;
1109 [label="previous_year_rating <= 2.5\ngini = 0.298\nsamples = 33\nvalue = [27, 6]"] ;
1108 -> 1109 ;
1110 [label="gini = 0.0\nsamples = 7\nvalue = [7, 0]"] ;
1109 -> 1110 ;
1111 [label="age <= 42.0\ngini = 0.355\nsamples = 26\nvalue = [20, 6]"] ;
1109 -> 1111 ;
1112 [label="age <= 40.5\ngini = 0.386\nsamples = 23\nvalue = [17, 6]"] ;
1111 -> 1112 ;
1113 [label="length_of_service <= 6.5\ngini = 0.351\nsamples = 22\nvalue = [17, 5]"] ;
1112 -> 1113 ;
1114 [label="age <= 35.5\ngini = 0.165\nsamples = 11\nvalue = [10, 1]"] ;
1113 -> 1114 ;
1115 [label="gini = 0.0\nsamples = 8\nvalue = [8, 0]"] ;
1114 -> 1115 ;
1116 [label="age <= 37.0\ngini = 0.444\nsamples = 3\nvalue = [2, 1]"] ;
1114 -> 1116 ;
1117 [label="gini = 0.0\nsamples = 1\nvalue = [0, 1]"] ;
1116 -> 1117 ;
1118 [label="gini = 0.0\nsamples = 2\nvalue = [2, 0]"] ;
1116 -> 1118 ;
1119 [label="age <= 36.5\ngini = 0.463\nsamples = 11\nvalue = [7, 4]"] ;
1113 -> 1119 ;
1120 [label="age <= 30.5\ngini = 0.48\nsamples = 5\nvalue = [2, 3]"] ;
1119 -> 1120 ;
1121 [label="gini = 0.0\nsamples = 1\nvalue = [0, 1]"] ;
1120 -> 1121 ;
1122 [label="age <= 31.5\ngini = 0.5\nsamples = 4\nvalue = [2, 2]"] ;
1120 -> 1122 ;
1123 [label="gini = 0.0\nsamples = 1\nvalue = [1, 0]"] ;
1122 -> 1123 ;
1124 [label="age <= 33.0\ngini = 0.444\nsamples = 3\nvalue = [1, 2]"] ;
1122 -> 1124 ;
1125 [label="gini = 0.0\nsamples = 1\nvalue = [0, 1]"] ;
1124 -> 1125 ;
1126 [label="age <= 35.0\ngini = 0.5\nsamples = 2\nvalue = [1, 1]"] ;
1124 -> 1126 ;
1127 [label="gini = 0.0\nsamples = 1\nvalue = [1, 0]"] ;
1126 -> 1127 ;
1128 [label="gini = 0.0\nsamples = 1\nvalue = [0, 1]"] ;
1126 -> 1128 ;
1129 [label="length_of_service <= 8.5\ngini = 0.278\nsamples = 6\nvalue = [5, 1]"] ;
1119 -> 1129 ;
1130 [label="length_of_service <= 7.5\ngini = 0.444\nsamples = 3\nvalue = [2, 1]"] ;
1129 -> 1130 ;
1131 [label="gini = 0.0\nsamples = 2\nvalue = [2, 0]"] ;
1130 -> 1131 ;
1132 [label="gini = 0.0\nsamples = 1\nvalue = [0, 1]"] ;
1130 -> 1132 ;
1133 [label="gini = 0.0\nsamples = 3\nvalue = [3, 0]"] ;
1129 -> 1133 ;
1134 [label="gini = 0.0\nsamples = 1\nvalue = [0, 1]"] ;
1112 -> 1134 ;
1135 [label="gini = 0.0\nsamples = 3\nvalue = [3, 0]"] ;
1111 -> 1135 ;
1136 [label="age <= 37.5\ngini = 0.5\nsamples = 4\nvalue = [2, 2]"] ;
1108 -> 1136 ;
1137 [label="gini = 0.0\nsamples = 1\nvalue = [0, 1]"] ;
1136 -> 1137 ;
1138 [label="previous_year_rating <= 2.5\ngini = 0.444\nsamples = 3\nvalue = [2, 1]"] ;
1136 -> 1138 ;
1139 [label="gini = 0.0\nsamples = 1\nvalue = [0, 1]"] ;
1138 -> 1139 ;
1140 [label="gini = 0.0\nsamples = 2\nvalue = [2, 0]"] ;
1138 -> 1140 ;
1141 [label="gini = 0.0\nsamples = 1\nvalue = [0, 1]"] ;
1107 -> 1141 ;
1142 [label="gini = 0.0\nsamples = 5\nvalue = [5, 0]"] ;
1106 -> 1142 ;
1143 [label="gini = 0.0\nsamples = 12\nvalue = [12, 0]"] ;
1105 -> 1143 ;
1144 [label="age <= 27.5\ngini = 0.084\nsamples = 68\nvalue = [65, 3]"] ;
1076 -> 1144 ;
1145 [label="length_of_service <= 2.5\ngini = 0.375\nsamples = 8\nvalue = [6, 2]"] ;
1144 -> 1145 ;
1146 [label="gini = 0.0\nsamples = 4\nvalue = [4, 0]"] ;
1145 -> 1146 ;
1147 [label="previous_year_rating <= 3.5\ngini = 0.5\nsamples = 4\nvalue = [2, 2]"] ;
1145 -> 1147 ;
1148 [label="age <= 26.5\ngini = 0.444\nsamples = 3\nvalue = [1, 2]"] ;
1147 -> 1148 ;
1149 [label="gini = 0.0\nsamples = 1\nvalue = [1, 0]"] ;
1148 -> 1149 ;
1150 [label="gini = 0.0\nsamples = 2\nvalue = [0, 2]"] ;
1148 -> 1150 ;
1151 [label="gini = 0.0\nsamples = 1\nvalue = [1, 0]"] ;
1147 -> 1151 ;
1152 [label="age <= 29.5\ngini = 0.033\nsamples = 60\nvalue = [59, 1]"] ;
1144 -> 1152 ;
1153 [label="length_of_service <= 3.5\ngini = 0.18\nsamples = 10\nvalue = [9, 1]"] ;
1152 -> 1153 ;
1154 [label="age <= 28.5\ngini = 0.375\nsamples = 4\nvalue = [3, 1]"] ;
1153 -> 1154 ;
1155 [label="gini = 0.0\nsamples = 1\nvalue = [1, 0]"] ;
1154 -> 1155 ;
1156 [label="gini = 0.444\nsamples = 3\nvalue = [2, 1]"] ;
1154 -> 1156 ;
1157 [label="gini = 0.0\nsamples = 6\nvalue = [6, 0]"] ;
1153 -> 1157 ;
1158 [label="gini = 0.0\nsamples = 50\nvalue = [50, 0]"] ;
1152 -> 1158 ;
1159 [label="previous_year_rating <= 2.5\ngini = 0.375\nsamples = 4\nvalue = [3, 1]"] ;
1075 -> 1159 ;
1160 [label="length_of_service <= 3.0\ngini = 0.5\nsamples = 2\nvalue = [1, 1]"] ;
1159 -> 1160 ;
1161 [label="gini = 0.0\nsamples = 1\nvalue = [0, 1]"] ;
1160 -> 1161 ;
1162 [label="gini = 0.0\nsamples = 1\nvalue = [1, 0]"] ;
1160 -> 1162 ;
1163 [label="gini = 0.0\nsamples = 2\nvalue = [2, 0]"] ;
1159 -> 1163 ;
1164 [label="length_of_service <= 16.5\ngini = 0.04\nsamples = 146\nvalue = [143, 3]"] ;
1050 -> 1164 ;
1165 [label="age <= 35.5\ngini = 0.03\nsamples = 133\nvalue = [131, 2]"] ;
1164 -> 1165 ;
1166 [label="age <= 33.5\ngini = 0.077\nsamples = 50\nvalue = [48, 2]"] ;
1165 -> 1166 ;
1167 [label="gini = 0.0\nsamples = 27\nvalue = [27, 0]"] ;
1166 -> 1167 ;
1168 [label="previous_year_rating <= 3.5\ngini = 0.159\nsamples = 23\nvalue = [21, 2]"] ;
1166 -> 1168 ;
1169 [label="avg_training_score <= 69.5\ngini = 0.105\nsamples = 18\nvalue = [17, 1]"] ;
1168 -> 1169 ;
1170 [label="length_of_service <= 5.0\ngini = 0.219\nsamples = 8\nvalue = [7, 1]"] ;
1169 -> 1170 ;
1171 [label="gini = 0.0\nsamples = 4\nvalue = [4, 0]"] ;
1170 -> 1171 ;
1172 [label="length_of_service <= 7.5\ngini = 0.375\nsamples = 4\nvalue = [3, 1]"] ;
1170 -> 1172 ;
1173 [label="age <= 34.5\ngini = 0.5\nsamples = 2\nvalue = [1, 1]"] ;
1172 -> 1173 ;
1174 [label="gini = 0.0\nsamples = 1\nvalue = [1, 0]"] ;
1173 -> 1174 ;
1175 [label="gini = 0.0\nsamples = 1\nvalue = [0, 1]"] ;
1173 -> 1175 ;
1176 [label="gini = 0.0\nsamples = 2\nvalue = [2, 0]"] ;
1172 -> 1176 ;
1177 [label="gini = 0.0\nsamples = 10\nvalue = [10, 0]"] ;
1169 -> 1177 ;
1178 [label="age <= 34.5\ngini = 0.32\nsamples = 5\nvalue = [4, 1]"] ;
1168 -> 1178 ;
1179 [label="avg_training_score <= 70.5\ngini = 0.444\nsamples = 3\nvalue = [2, 1]"] ;
1178 -> 1179 ;
1180 [label="length_of_service <= 6.5\ngini = 0.5\nsamples = 2\nvalue = [1, 1]"] ;
1179 -> 1180 ;
1181 [label="gini = 0.0\nsamples = 1\nvalue = [1, 0]"] ;
1180 -> 1181 ;
1182 [label="gini = 0.0\nsamples = 1\nvalue = [0, 1]"] ;
1180 -> 1182 ;
1183 [label="gini = 0.0\nsamples = 1\nvalue = [1, 0]"] ;
1179 -> 1183 ;
1184 [label="gini = 0.0\nsamples = 2\nvalue = [2, 0]"] ;
1178 -> 1184 ;
1185 [label="gini = 0.0\nsamples = 83\nvalue = [83, 0]"] ;
1165 -> 1185 ;
